<GAP_2014_5_8_60_17_10_38_466>
<Potential label="GAP_2014_5_8_60_17_10_38_466" init_args="Sum init_args_pot1={IP Glue} init_args_pot2={IP GAP label=GAP_2014_5_8_60_17_10_38_466}"/>
<Glue_params n_types="2">
  <per_type_data atomic_num="14" type="1">
    <!-- Si -->
    <density num_points="14" density_y1="-0.4144" density_yn="0.0">
      <point a="0.821917808219178" rho="0.258391"/>
      <point a="1.027397260273973" rho="0.173248"/>
      <point a="1.232876712328767" rho="0.097399"/>
      <point a="1.438356164383562" rho="0.050254"/>
      <point a="1.643835616438357" rho="0.025066"/>
      <point a="1.849315068493151" rho="0.012652"/>
      <point a="2.054794520547945" rho="0.006107"/>
      <point a="2.260273972602740" rho="0.003182"/>
      <point a="2.465753424657535" rho="0.001524"/>
      <point a="2.671232876712329" rho="0.000913"/>
      <point a="2.876712328767124" rho="0.000383"/>
      <point a="3.082191780821919" rho="0.000295"/>
      <point a="3.287671232876713" rho="0.000080"/>
      <point a="3.493150684931507" rho="0.000000"/>
    </density>
    <potential_density num_points="12">
      <point rho="0.0000000000000" E="0.0"/>
      <point rho="0.0572259106295" E="0.0"/>
      <point rho="0.0633096739107" E="0.0"/>
      <point rho="0.0689221129285" E="0.0"/>
      <point rho="0.0741074612625" E="0.0"/>
      <point rho="0.0789857895134" E="0.0"/>
      <point rho="0.0835293161324" E="0.0"/>
      <point rho="0.1529969346048" E="0.0"/>
      <point rho="0.2168736082455" E="0.0"/>
      <point rho="0.2697341539351" E="0.0"/>
      <point rho="0.3158337343334" E="0.0"/>
      <point rho="0.3570433660014" E="0.0"/>
    </potential_density>
  </per_type_data>
  <per_type_data atomic_num="8" type="2">
    <!-- O -->
    <density num_points="13" density_y1="-12.096333" density_yn="0.0">
      <point a="0.275229" rho="5.207325"/>
      <point a="0.412844" rho="3.542692"/>
      <point a="0.550458" rho="1.841125"/>
      <point a="0.688073" rho="0.878272"/>
      <point a="0.825688" rho="0.407461"/>
      <point a="0.963302" rho="0.201061"/>
      <point a="1.100917" rho="0.096121"/>
      <point a="1.238532" rho="0.047733"/>
      <point a="1.376146" rho="0.021994"/>
      <point a="1.513761" rho="0.013445"/>
      <point a="1.651376" rho="0.005751"/>
      <point a="1.788990" rho="0.004175"/>
      <point a="2.000000" rho="0.000000"/>
    </density>
    <potential_density num_points="6">
      <point rho="0.000000000000" E="-162.5696"/>
      <point rho="0.007455445248" E="-162.6855"/>
      <point rho="0.017732566824" E="-162.2040"/>
      <point rho="0.030441208637" E="-160.5319"/>
      <point rho="0.056284772194" E="-156.7397"/>
      <point rho="0.074786922252" E="-153.6122"/>
    </potential_density>
  </per_type_data>
  <per_pair_data type1="1" type2="1">
    <!-- Si -->
    <potential_pair num_points="11" density_y1="0.0" density_yn="0.0">
      <point r=" 1.2" E="       13.4896897268455"/>
      <point r="1.33" E="       6.35102226195354"/>
      <point r="1.46" E="       2.85261290997884"/>
      <point r="1.59" E="       1.17069139864555"/>
      <point r="1.72" E="      0.410915649591501"/>
      <point r="1.85" E="       0.11009036654669"/>
      <point r="1.98" E="     0.0180148277318245"/>
      <point r="2.11" E="    0.00107543820001212"/>
      <point r="2.24" E="    5.0184779157859e-06"/>
      <point r="2.37" E="   8.33906077334409e-13"/>
      <point r=" 2.5" E="0.00000000000000000"/>
    </potential_pair>
 </per_pair_data>
</Glue_params>
<GAP_params label="GAP_2014_5_8_60_17_10_38_466" svn_version="git@gc121mac1.eng.cam.ac.uk:QUIP,svn-import-376-g9c015d2-dirty">
  <GAP_data do_core="T">
    <e0 Z="1" value="-160.84177664164525368"/>
    <e0 Z="2" value="-160.84177664164525368"/>
    <e0 Z="3" value="-160.84177664164525368"/>
    <e0 Z="4" value="-160.84177664164525368"/>
    <e0 Z="5" value="-160.84177664164525368"/>
    <e0 Z="6" value="-160.84177664164525368"/>
    <e0 Z="7" value="-160.84177664164525368"/>
    <e0 Z="8" value="-160.84177664164525368"/>
    <e0 Z="9" value="-160.84177664164525368"/>
    <e0 Z="10" value="-160.84177664164525368"/>
    <e0 Z="11" value="-160.84177664164525368"/>
    <e0 Z="12" value="-160.84177664164525368"/>
    <e0 Z="13" value="-160.84177664164525368"/>
    <e0 Z="14" value="-160.84177664164525368"/>
    <e0 Z="15" value="-160.84177664164525368"/>
    <e0 Z="16" value="-160.84177664164525368"/>
    <e0 Z="17" value="-160.84177664164525368"/>
    <e0 Z="18" value="-160.84177664164525368"/>
    <e0 Z="19" value="-160.84177664164525368"/>
    <e0 Z="20" value="-160.84177664164525368"/>
    <e0 Z="21" value="-160.84177664164525368"/>
    <e0 Z="22" value="-160.84177664164525368"/>
    <e0 Z="23" value="-160.84177664164525368"/>
    <e0 Z="24" value="-160.84177664164525368"/>
    <e0 Z="25" value="-160.84177664164525368"/>
    <e0 Z="26" value="-160.84177664164525368"/>
    <e0 Z="27" value="-160.84177664164525368"/>
    <e0 Z="28" value="-160.84177664164525368"/>
    <e0 Z="29" value="-160.84177664164525368"/>
    <e0 Z="30" value="-160.84177664164525368"/>
    <e0 Z="31" value="-160.84177664164525368"/>
    <e0 Z="32" value="-160.84177664164525368"/>
    <e0 Z="33" value="-160.84177664164525368"/>
    <e0 Z="34" value="-160.84177664164525368"/>
    <e0 Z="35" value="-160.84177664164525368"/>
    <e0 Z="36" value="-160.84177664164525368"/>
    <e0 Z="37" value="-160.84177664164525368"/>
    <e0 Z="38" value="-160.84177664164525368"/>
    <e0 Z="39" value="-160.84177664164525368"/>
    <e0 Z="40" value="-160.84177664164525368"/>
    <e0 Z="41" value="-160.84177664164525368"/>
    <e0 Z="42" value="-160.84177664164525368"/>
    <e0 Z="43" value="-160.84177664164525368"/>
    <e0 Z="44" value="-160.84177664164525368"/>
    <e0 Z="45" value="-160.84177664164525368"/>
    <e0 Z="46" value="-160.84177664164525368"/>
    <e0 Z="47" value="-160.84177664164525368"/>
    <e0 Z="48" value="-160.84177664164525368"/>
    <e0 Z="49" value="-160.84177664164525368"/>
    <e0 Z="50" value="-160.84177664164525368"/>
    <e0 Z="51" value="-160.84177664164525368"/>
    <e0 Z="52" value="-160.84177664164525368"/>
    <e0 Z="53" value="-160.84177664164525368"/>
    <e0 Z="54" value="-160.84177664164525368"/>
    <e0 Z="55" value="-160.84177664164525368"/>
    <e0 Z="56" value="-160.84177664164525368"/>
    <e0 Z="57" value="-160.84177664164525368"/>
    <e0 Z="58" value="-160.84177664164525368"/>
    <e0 Z="59" value="-160.84177664164525368"/>
    <e0 Z="60" value="-160.84177664164525368"/>
    <e0 Z="61" value="-160.84177664164525368"/>
    <e0 Z="62" value="-160.84177664164525368"/>
    <e0 Z="63" value="-160.84177664164525368"/>
    <e0 Z="64" value="-160.84177664164525368"/>
    <e0 Z="65" value="-160.84177664164525368"/>
    <e0 Z="66" value="-160.84177664164525368"/>
    <e0 Z="67" value="-160.84177664164525368"/>
    <e0 Z="68" value="-160.84177664164525368"/>
    <e0 Z="69" value="-160.84177664164525368"/>
    <e0 Z="70" value="-160.84177664164525368"/>
    <e0 Z="71" value="-160.84177664164525368"/>
    <e0 Z="72" value="-160.84177664164525368"/>
    <e0 Z="73" value="-160.84177664164525368"/>
    <e0 Z="74" value="-160.84177664164525368"/>
    <e0 Z="75" value="-160.84177664164525368"/>
    <e0 Z="76" value="-160.84177664164525368"/>
    <e0 Z="77" value="-160.84177664164525368"/>
    <e0 Z="78" value="-160.84177664164525368"/>
    <e0 Z="79" value="-160.84177664164525368"/>
    <e0 Z="80" value="-160.84177664164525368"/>
    <e0 Z="81" value="-160.84177664164525368"/>
    <e0 Z="82" value="-160.84177664164525368"/>
    <e0 Z="83" value="-160.84177664164525368"/>
    <e0 Z="84" value="-160.84177664164525368"/>
    <e0 Z="85" value="-160.84177664164525368"/>
    <e0 Z="86" value="-160.84177664164525368"/>
    <e0 Z="87" value="-160.84177664164525368"/>
    <e0 Z="88" value="-160.84177664164525368"/>
    <e0 Z="89" value="-160.84177664164525368"/>
    <e0 Z="90" value="-160.84177664164525368"/>
    <e0 Z="91" value="-160.84177664164525368"/>
    <e0 Z="92" value="-160.84177664164525368"/>
    <e0 Z="93" value="-160.84177664164525368"/>
    <e0 Z="94" value="-160.84177664164525368"/>
    <e0 Z="95" value="-160.84177664164525368"/>
    <e0 Z="96" value="-160.84177664164525368"/>
    <e0 Z="97" value="-160.84177664164525368"/>
    <e0 Z="98" value="-160.84177664164525368"/>
    <e0 Z="99" value="-160.84177664164525368"/>
    <e0 Z="100" value="-160.84177664164525368"/>
    <e0 Z="101" value="-160.84177664164525368"/>
    <e0 Z="102" value="-160.84177664164525368"/>
    <e0 Z="103" value="-160.84177664164525368"/>
    <e0 Z="104" value="-160.84177664164525368"/>
    <e0 Z="105" value="-160.84177664164525368"/>
    <e0 Z="106" value="-160.84177664164525368"/>
    <e0 Z="107" value="-160.84177664164525368"/>
    <e0 Z="108" value="-160.84177664164525368"/>
    <e0 Z="109" value="-160.84177664164525368"/>
    <e0 Z="110" value="-160.84177664164525368"/>
    <e0 Z="111" value="-160.84177664164525368"/>
    <e0 Z="112" value="-160.84177664164525368"/>
    <e0 Z="113" value="-160.84177664164525368"/>
    <e0 Z="114" value="-160.84177664164525368"/>
    <e0 Z="115" value="-160.84177664164525368"/>
    <e0 Z="116" value="-160.84177664164525368"/>
  </GAP_data>
  <gpSparse label="GAP_2014_5_8_60_17_10_38_466" n_coordinate="1">
    <gpCoordinates label="GAP_2014_5_8_60_17_10_38_4661" dimensions="716" signal_variance="1.00000000000000000" signal_mean="0.00000000000000000" sparsified="T" n_permutations="1" covariance_type="2" n_sparseX="2500" sparseX_filename="gap_example_sparse.dat">
      <theta>  0.40000000000000000E+01 </theta>
      <descriptor>soap l_max=12 n_max=10 atom_sigma=0.5 zeta=4 cutoff=5.0 cutoff_transition_width=1.0 config_type_n_sparseX=dia:500:bt:500:sh:500:liq:1000 delta=1.0 f0=0.0 covariance_type=dot_product sparse_method=kmeans</descriptor>
      <permutation i="1">1  </permutation>
      <sparseX i="1" alpha="-6285.90134665567256889" sparseCutoff="1.00000000000000000"/>
      <sparseX i="2" alpha="6490.45807057156616793" sparseCutoff="1.00000000000000000"/>
      <sparseX i="3" alpha="10440.43262800280717784" sparseCutoff="1.00000000000000000"/>
      <sparseX i="4" alpha="263.86064688652214727" sparseCutoff="1.00000000000000000"/>
      <sparseX i="5" alpha="-17593.83642545818656799" sparseCutoff="1.00000000000000000"/>
      <sparseX i="6" alpha="-545.57314010867969500" sparseCutoff="1.00000000000000000"/>
      <sparseX i="7" alpha="-1721.99220472473234622" sparseCutoff="1.00000000000000000"/>
      <sparseX i="8" alpha="97.04876681882662126" sparseCutoff="1.00000000000000000"/>
      <sparseX i="9" alpha="-1552.44497007208383366" sparseCutoff="1.00000000000000000"/>
      <sparseX i="10" alpha="-1221.67695824824045303" sparseCutoff="1.00000000000000000"/>
      <sparseX i="11" alpha="1733.39874582317679597" sparseCutoff="1.00000000000000000"/>
      <sparseX i="12" alpha="1510.24814014713365395" sparseCutoff="1.00000000000000000"/>
      <sparseX i="13" alpha="1539.08159357328327133" sparseCutoff="1.00000000000000000"/>
      <sparseX i="14" alpha="1009.33307471745365547" sparseCutoff="1.00000000000000000"/>
      <sparseX i="15" alpha="125.72858362775470198" sparseCutoff="1.00000000000000000"/>
      <sparseX i="16" alpha="1227.64955192544698548" sparseCutoff="1.00000000000000000"/>
      <sparseX i="17" alpha="-1392.88278593581594578" sparseCutoff="1.00000000000000000"/>
      <sparseX i="18" alpha="-2086.89501843483685661" sparseCutoff="1.00000000000000000"/>
      <sparseX i="19" alpha="795.63807376663748983" sparseCutoff="1.00000000000000000"/>
      <sparseX i="20" alpha="-123.27113745328220773" sparseCutoff="1.00000000000000000"/>
      <sparseX i="21" alpha="-451.75858138779165074" sparseCutoff="1.00000000000000000"/>
      <sparseX i="22" alpha="-558.71026437690807143" sparseCutoff="1.00000000000000000"/>
      <sparseX i="23" alpha="144.89460309739999389" sparseCutoff="1.00000000000000000"/>
      <sparseX i="24" alpha="-1613.25619131845292031" sparseCutoff="1.00000000000000000"/>
      <sparseX i="25" alpha="-2085.74557419057600782" sparseCutoff="1.00000000000000000"/>
      <sparseX i="26" alpha="59.34346386044613553" sparseCutoff="1.00000000000000000"/>
      <sparseX i="27" alpha="727.02550328347365394" sparseCutoff="1.00000000000000000"/>
      <sparseX i="28" alpha="1059.14976217001481018" sparseCutoff="1.00000000000000000"/>
      <sparseX i="29" alpha="-1349.56426866199672077" sparseCutoff="1.00000000000000000"/>
      <sparseX i="30" alpha="-1036.93806634049701643" sparseCutoff="1.00000000000000000"/>
      <sparseX i="31" alpha="863.53900665960088645" sparseCutoff="1.00000000000000000"/>
      <sparseX i="32" alpha="-301.42818193753339528" sparseCutoff="1.00000000000000000"/>
      <sparseX i="33" alpha="174.87259897990091417" sparseCutoff="1.00000000000000000"/>
      <sparseX i="34" alpha="669.13257483238226087" sparseCutoff="1.00000000000000000"/>
      <sparseX i="35" alpha="-74.60537330105854892" sparseCutoff="1.00000000000000000"/>
      <sparseX i="36" alpha="-644.58789630134833715" sparseCutoff="1.00000000000000000"/>
      <sparseX i="37" alpha="129.58528428164103730" sparseCutoff="1.00000000000000000"/>
      <sparseX i="38" alpha="579.52830228502591581" sparseCutoff="1.00000000000000000"/>
      <sparseX i="39" alpha="198.38914435493521182" sparseCutoff="1.00000000000000000"/>
      <sparseX i="40" alpha="163.80142819131808096" sparseCutoff="1.00000000000000000"/>
      <sparseX i="41" alpha="301.75249100850322748" sparseCutoff="1.00000000000000000"/>
      <sparseX i="42" alpha="-435.07521136582300869" sparseCutoff="1.00000000000000000"/>
      <sparseX i="43" alpha="-369.99337012649971257" sparseCutoff="1.00000000000000000"/>
      <sparseX i="44" alpha="-477.81130787041877284" sparseCutoff="1.00000000000000000"/>
      <sparseX i="45" alpha="3966.94944122272363529" sparseCutoff="1.00000000000000000"/>
      <sparseX i="46" alpha="228.56317109871355342" sparseCutoff="1.00000000000000000"/>
      <sparseX i="47" alpha="11078.75110084974585334" sparseCutoff="1.00000000000000000"/>
      <sparseX i="48" alpha="2361.53090728633742401" sparseCutoff="1.00000000000000000"/>
      <sparseX i="49" alpha="-15318.84747668431737111" sparseCutoff="1.00000000000000000"/>
      <sparseX i="50" alpha="-3000.20265116908649361" sparseCutoff="1.00000000000000000"/>
      <sparseX i="51" alpha="-8656.17033709619681758" sparseCutoff="1.00000000000000000"/>
      <sparseX i="52" alpha="1874.73397438834331297" sparseCutoff="1.00000000000000000"/>
      <sparseX i="53" alpha="1075.02015939741454531" sparseCutoff="1.00000000000000000"/>
      <sparseX i="54" alpha="-380.80337121295070801" sparseCutoff="1.00000000000000000"/>
      <sparseX i="55" alpha="-1328.66053993777745745" sparseCutoff="1.00000000000000000"/>
      <sparseX i="56" alpha="-6164.09519956007443398" sparseCutoff="1.00000000000000000"/>
      <sparseX i="57" alpha="7884.09656964955047442" sparseCutoff="1.00000000000000000"/>
      <sparseX i="58" alpha="-3768.90989521083565705" sparseCutoff="1.00000000000000000"/>
      <sparseX i="59" alpha="5111.38519073533097981" sparseCutoff="1.00000000000000000"/>
      <sparseX i="60" alpha="-3900.67681584018873764" sparseCutoff="1.00000000000000000"/>
      <sparseX i="61" alpha="-5646.25542162602141616" sparseCutoff="1.00000000000000000"/>
      <sparseX i="62" alpha="-5808.62676107441984641" sparseCutoff="1.00000000000000000"/>
      <sparseX i="63" alpha="3830.36578335924286876" sparseCutoff="1.00000000000000000"/>
      <sparseX i="64" alpha="-6269.96335021525010234" sparseCutoff="1.00000000000000000"/>
      <sparseX i="65" alpha="184.80517512230454713" sparseCutoff="1.00000000000000000"/>
      <sparseX i="66" alpha="-1999.93293931189055002" sparseCutoff="1.00000000000000000"/>
      <sparseX i="67" alpha="5439.21341654329080484" sparseCutoff="1.00000000000000000"/>
      <sparseX i="68" alpha="362.39340927483232235" sparseCutoff="1.00000000000000000"/>
      <sparseX i="69" alpha="3873.55940906972909943" sparseCutoff="1.00000000000000000"/>
      <sparseX i="70" alpha="3314.16919817100688306" sparseCutoff="1.00000000000000000"/>
      <sparseX i="71" alpha="7505.47451102187642391" sparseCutoff="1.00000000000000000"/>
      <sparseX i="72" alpha="-2607.72273255251138835" sparseCutoff="1.00000000000000000"/>
      <sparseX i="73" alpha="-1934.95966011061136669" sparseCutoff="1.00000000000000000"/>
      <sparseX i="74" alpha="-560.44020575496620040" sparseCutoff="1.00000000000000000"/>
      <sparseX i="75" alpha="-2658.51422811109296163" sparseCutoff="1.00000000000000000"/>
      <sparseX i="76" alpha="-472.21014356315725990" sparseCutoff="1.00000000000000000"/>
      <sparseX i="77" alpha="-122.48878034348547317" sparseCutoff="1.00000000000000000"/>
      <sparseX i="78" alpha="1473.55056777370305099" sparseCutoff="1.00000000000000000"/>
      <sparseX i="79" alpha="-3857.88657837583377841" sparseCutoff="1.00000000000000000"/>
      <sparseX i="80" alpha="2204.76004977574575605" sparseCutoff="1.00000000000000000"/>
      <sparseX i="81" alpha="1403.94844153313579227" sparseCutoff="1.00000000000000000"/>
      <sparseX i="82" alpha="-354.37753878296325638" sparseCutoff="1.00000000000000000"/>
      <sparseX i="83" alpha="1044.08392488632080131" sparseCutoff="1.00000000000000000"/>
      <sparseX i="84" alpha="570.10809395229148322" sparseCutoff="1.00000000000000000"/>
      <sparseX i="85" alpha="2125.83441241350010387" sparseCutoff="1.00000000000000000"/>
      <sparseX i="86" alpha="-3261.11673711647654272" sparseCutoff="1.00000000000000000"/>
      <sparseX i="87" alpha="2209.47087535151240445" sparseCutoff="1.00000000000000000"/>
      <sparseX i="88" alpha="-3993.79158180683634782" sparseCutoff="1.00000000000000000"/>
      <sparseX i="89" alpha="-1854.58596455819974835" sparseCutoff="1.00000000000000000"/>
      <sparseX i="90" alpha="279.43569878175037502" sparseCutoff="1.00000000000000000"/>
      <sparseX i="91" alpha="1358.59457697616426231" sparseCutoff="1.00000000000000000"/>
      <sparseX i="92" alpha="-12606.24773918726532429" sparseCutoff="1.00000000000000000"/>
      <sparseX i="93" alpha="2772.12948617267420559" sparseCutoff="1.00000000000000000"/>
      <sparseX i="94" alpha="4617.31000548210795387" sparseCutoff="1.00000000000000000"/>
      <sparseX i="95" alpha="-12940.37179803066101158" sparseCutoff="1.00000000000000000"/>
      <sparseX i="96" alpha="6213.36010688863188989" sparseCutoff="1.00000000000000000"/>
      <sparseX i="97" alpha="5470.05246112542863557" sparseCutoff="1.00000000000000000"/>
      <sparseX i="98" alpha="7949.55594382143681287" sparseCutoff="1.00000000000000000"/>
      <sparseX i="99" alpha="27799.79912717487604823" sparseCutoff="1.00000000000000000"/>
      <sparseX i="100" alpha="-12486.22886581383318116" sparseCutoff="1.00000000000000000"/>
      <sparseX i="101" alpha="11134.44700302600722353" sparseCutoff="1.00000000000000000"/>
      <sparseX i="102" alpha="-3974.13249001745316491" sparseCutoff="1.00000000000000000"/>
      <sparseX i="103" alpha="7146.21281380575783260" sparseCutoff="1.00000000000000000"/>
      <sparseX i="104" alpha="-1540.06819860151585999" sparseCutoff="1.00000000000000000"/>
      <sparseX i="105" alpha="-1658.89145459646260861" sparseCutoff="1.00000000000000000"/>
      <sparseX i="106" alpha="5209.29480808694734151" sparseCutoff="1.00000000000000000"/>
      <sparseX i="107" alpha="-2979.66964652929527801" sparseCutoff="1.00000000000000000"/>
      <sparseX i="108" alpha="-1561.73049861273102579" sparseCutoff="1.00000000000000000"/>
      <sparseX i="109" alpha="6765.02811108773221349" sparseCutoff="1.00000000000000000"/>
      <sparseX i="110" alpha="-16489.39454023938742466" sparseCutoff="1.00000000000000000"/>
      <sparseX i="111" alpha="3091.24755191590611503" sparseCutoff="1.00000000000000000"/>
      <sparseX i="112" alpha="1546.95946416845572458" sparseCutoff="1.00000000000000000"/>
      <sparseX i="113" alpha="-2084.38000787947203207" sparseCutoff="1.00000000000000000"/>
      <sparseX i="114" alpha="6102.79345372451916774" sparseCutoff="1.00000000000000000"/>
      <sparseX i="115" alpha="724.37988929291384466" sparseCutoff="1.00000000000000000"/>
      <sparseX i="116" alpha="2294.14576485893985591" sparseCutoff="1.00000000000000000"/>
      <sparseX i="117" alpha="-6948.51112163648758724" sparseCutoff="1.00000000000000000"/>
      <sparseX i="118" alpha="3464.86980871079413191" sparseCutoff="1.00000000000000000"/>
      <sparseX i="119" alpha="-3373.21294283373163125" sparseCutoff="1.00000000000000000"/>
      <sparseX i="120" alpha="342.41203571274337492" sparseCutoff="1.00000000000000000"/>
      <sparseX i="121" alpha="6053.06217692926293239" sparseCutoff="1.00000000000000000"/>
      <sparseX i="122" alpha="2113.98676480388212440" sparseCutoff="1.00000000000000000"/>
      <sparseX i="123" alpha="2875.61144527693841155" sparseCutoff="1.00000000000000000"/>
      <sparseX i="124" alpha="96.96715058938782761" sparseCutoff="1.00000000000000000"/>
      <sparseX i="125" alpha="691.81928099032120372" sparseCutoff="1.00000000000000000"/>
      <sparseX i="126" alpha="1328.51850686671537005" sparseCutoff="1.00000000000000000"/>
      <sparseX i="127" alpha="-863.26712028571512292" sparseCutoff="1.00000000000000000"/>
      <sparseX i="128" alpha="-6939.62622554077188397" sparseCutoff="1.00000000000000000"/>
      <sparseX i="129" alpha="7463.12888734285297687" sparseCutoff="1.00000000000000000"/>
      <sparseX i="130" alpha="-1776.25897782324500440" sparseCutoff="1.00000000000000000"/>
      <sparseX i="131" alpha="662.67429923780764511" sparseCutoff="1.00000000000000000"/>
      <sparseX i="132" alpha="400.39057852549620975" sparseCutoff="1.00000000000000000"/>
      <sparseX i="133" alpha="350.10816854717631941" sparseCutoff="1.00000000000000000"/>
      <sparseX i="134" alpha="9210.83519741586133023" sparseCutoff="1.00000000000000000"/>
      <sparseX i="135" alpha="2564.60787079124111187" sparseCutoff="1.00000000000000000"/>
      <sparseX i="136" alpha="2125.33221604244954506" sparseCutoff="1.00000000000000000"/>
      <sparseX i="137" alpha="-1048.90499946861950775" sparseCutoff="1.00000000000000000"/>
      <sparseX i="138" alpha="413.33449723010056687" sparseCutoff="1.00000000000000000"/>
      <sparseX i="139" alpha="-6335.04734937857028854" sparseCutoff="1.00000000000000000"/>
      <sparseX i="140" alpha="4317.09328259211724799" sparseCutoff="1.00000000000000000"/>
      <sparseX i="141" alpha="11381.30713097365514841" sparseCutoff="1.00000000000000000"/>
      <sparseX i="142" alpha="18686.38089309967108420" sparseCutoff="1.00000000000000000"/>
      <sparseX i="143" alpha="-3213.68429237794043729" sparseCutoff="1.00000000000000000"/>
      <sparseX i="144" alpha="-19268.77959991241732496" sparseCutoff="1.00000000000000000"/>
      <sparseX i="145" alpha="11286.42804270777196507" sparseCutoff="1.00000000000000000"/>
      <sparseX i="146" alpha="4846.55180641052902502" sparseCutoff="1.00000000000000000"/>
      <sparseX i="147" alpha="-20329.99597912744866335" sparseCutoff="1.00000000000000000"/>
      <sparseX i="148" alpha="5876.83597868359447602" sparseCutoff="1.00000000000000000"/>
      <sparseX i="149" alpha="8056.97793170827026188" sparseCutoff="1.00000000000000000"/>
      <sparseX i="150" alpha="-3587.28885455648332936" sparseCutoff="1.00000000000000000"/>
      <sparseX i="151" alpha="13089.32845190770785848" sparseCutoff="1.00000000000000000"/>
      <sparseX i="152" alpha="-12544.67173686586284020" sparseCutoff="1.00000000000000000"/>
      <sparseX i="153" alpha="-6584.69340561519584298" sparseCutoff="1.00000000000000000"/>
      <sparseX i="154" alpha="3032.87462163553709615" sparseCutoff="1.00000000000000000"/>
      <sparseX i="155" alpha="10501.19037112326259376" sparseCutoff="1.00000000000000000"/>
      <sparseX i="156" alpha="2455.38288846404657306" sparseCutoff="1.00000000000000000"/>
      <sparseX i="157" alpha="3589.72660579139392212" sparseCutoff="1.00000000000000000"/>
      <sparseX i="158" alpha="5884.86732163780652627" sparseCutoff="1.00000000000000000"/>
      <sparseX i="159" alpha="-2339.40565458702758406" sparseCutoff="1.00000000000000000"/>
      <sparseX i="160" alpha="-10081.23679921093207668" sparseCutoff="1.00000000000000000"/>
      <sparseX i="161" alpha="-3816.21543167761910809" sparseCutoff="1.00000000000000000"/>
      <sparseX i="162" alpha="139.76199380469273592" sparseCutoff="1.00000000000000000"/>
      <sparseX i="163" alpha="-12606.78528623132660869" sparseCutoff="1.00000000000000000"/>
      <sparseX i="164" alpha="-9866.38974570147547638" sparseCutoff="1.00000000000000000"/>
      <sparseX i="165" alpha="-5746.82503104089755652" sparseCutoff="1.00000000000000000"/>
      <sparseX i="166" alpha="3643.94802063116321733" sparseCutoff="1.00000000000000000"/>
      <sparseX i="167" alpha="-12257.35561961726671143" sparseCutoff="1.00000000000000000"/>
      <sparseX i="168" alpha="-2899.71650937614094801" sparseCutoff="1.00000000000000000"/>
      <sparseX i="169" alpha="1897.82168065796281553" sparseCutoff="1.00000000000000000"/>
      <sparseX i="170" alpha="-6240.32707462268990639" sparseCutoff="1.00000000000000000"/>
      <sparseX i="171" alpha="1501.82530107688558019" sparseCutoff="1.00000000000000000"/>
      <sparseX i="172" alpha="-4486.19213993614539504" sparseCutoff="1.00000000000000000"/>
      <sparseX i="173" alpha="444.00338743174927458" sparseCutoff="1.00000000000000000"/>
      <sparseX i="174" alpha="-1163.77615440661861612" sparseCutoff="1.00000000000000000"/>
      <sparseX i="175" alpha="-2823.09104075823324820" sparseCutoff="1.00000000000000000"/>
      <sparseX i="176" alpha="9993.56210931751047610" sparseCutoff="1.00000000000000000"/>
      <sparseX i="177" alpha="3217.90940495037602886" sparseCutoff="1.00000000000000000"/>
      <sparseX i="178" alpha="-4683.87423521203527343" sparseCutoff="1.00000000000000000"/>
      <sparseX i="179" alpha="14577.38098933308356209" sparseCutoff="1.00000000000000000"/>
      <sparseX i="180" alpha="-6408.74376179961654998" sparseCutoff="1.00000000000000000"/>
      <sparseX i="181" alpha="-7581.21831141754319106" sparseCutoff="1.00000000000000000"/>
      <sparseX i="182" alpha="-8707.84702145651681349" sparseCutoff="1.00000000000000000"/>
      <sparseX i="183" alpha="8543.78324387556131114" sparseCutoff="1.00000000000000000"/>
      <sparseX i="184" alpha="6545.47825070363614941" sparseCutoff="1.00000000000000000"/>
      <sparseX i="185" alpha="-4554.17604319861675322" sparseCutoff="1.00000000000000000"/>
      <sparseX i="186" alpha="630.15964846329779903" sparseCutoff="1.00000000000000000"/>
      <sparseX i="187" alpha="5973.62422542044441798" sparseCutoff="1.00000000000000000"/>
      <sparseX i="188" alpha="-4550.30748335434600449" sparseCutoff="1.00000000000000000"/>
      <sparseX i="189" alpha="-16194.10251392568534357" sparseCutoff="1.00000000000000000"/>
      <sparseX i="190" alpha="6026.31469491801908589" sparseCutoff="1.00000000000000000"/>
      <sparseX i="191" alpha="8392.00149392168350460" sparseCutoff="1.00000000000000000"/>
      <sparseX i="192" alpha="15990.10152051691147790" sparseCutoff="1.00000000000000000"/>
      <sparseX i="193" alpha="-6183.25446408699190215" sparseCutoff="1.00000000000000000"/>
      <sparseX i="194" alpha="5150.49419368970939104" sparseCutoff="1.00000000000000000"/>
      <sparseX i="195" alpha="-8756.08772421651883633" sparseCutoff="1.00000000000000000"/>
      <sparseX i="196" alpha="14334.31908770390873542" sparseCutoff="1.00000000000000000"/>
      <sparseX i="197" alpha="526.01249919524286724" sparseCutoff="1.00000000000000000"/>
      <sparseX i="198" alpha="8343.71704806704292423" sparseCutoff="1.00000000000000000"/>
      <sparseX i="199" alpha="-297.17460716857289071" sparseCutoff="1.00000000000000000"/>
      <sparseX i="200" alpha="3022.18602155814915022" sparseCutoff="1.00000000000000000"/>
      <sparseX i="201" alpha="9916.31945083755272208" sparseCutoff="1.00000000000000000"/>
      <sparseX i="202" alpha="-10246.44382050871172396" sparseCutoff="1.00000000000000000"/>
      <sparseX i="203" alpha="694.74879373978433250" sparseCutoff="1.00000000000000000"/>
      <sparseX i="204" alpha="6580.89857984337959351" sparseCutoff="1.00000000000000000"/>
      <sparseX i="205" alpha="5441.16170574761690659" sparseCutoff="1.00000000000000000"/>
      <sparseX i="206" alpha="3686.22315099812658445" sparseCutoff="1.00000000000000000"/>
      <sparseX i="207" alpha="15959.97969380877475487" sparseCutoff="1.00000000000000000"/>
      <sparseX i="208" alpha="-3327.73345893009764040" sparseCutoff="1.00000000000000000"/>
      <sparseX i="209" alpha="-11115.55873619731028157" sparseCutoff="1.00000000000000000"/>
      <sparseX i="210" alpha="-11407.33221012570902531" sparseCutoff="1.00000000000000000"/>
      <sparseX i="211" alpha="-12189.36299951377077377" sparseCutoff="1.00000000000000000"/>
      <sparseX i="212" alpha="4339.13533422871660150" sparseCutoff="1.00000000000000000"/>
      <sparseX i="213" alpha="7940.84299235437629250" sparseCutoff="1.00000000000000000"/>
      <sparseX i="214" alpha="7355.54359206607387023" sparseCutoff="1.00000000000000000"/>
      <sparseX i="215" alpha="6759.11370466056359874" sparseCutoff="1.00000000000000000"/>
      <sparseX i="216" alpha="2890.38395320393283328" sparseCutoff="1.00000000000000000"/>
      <sparseX i="217" alpha="1657.15586532416250520" sparseCutoff="1.00000000000000000"/>
      <sparseX i="218" alpha="-3240.22903333527119685" sparseCutoff="1.00000000000000000"/>
      <sparseX i="219" alpha="-18402.28619461875132401" sparseCutoff="1.00000000000000000"/>
      <sparseX i="220" alpha="175.66964397914310325" sparseCutoff="1.00000000000000000"/>
      <sparseX i="221" alpha="6465.53066751561527781" sparseCutoff="1.00000000000000000"/>
      <sparseX i="222" alpha="-12517.98661222768168955" sparseCutoff="1.00000000000000000"/>
      <sparseX i="223" alpha="-1977.27698627971813039" sparseCutoff="1.00000000000000000"/>
      <sparseX i="224" alpha="-1895.38371105355395230" sparseCutoff="1.00000000000000000"/>
      <sparseX i="225" alpha="-7939.23943520503053151" sparseCutoff="1.00000000000000000"/>
      <sparseX i="226" alpha="-11220.31172266636167478" sparseCutoff="1.00000000000000000"/>
      <sparseX i="227" alpha="-4196.29094851485842810" sparseCutoff="1.00000000000000000"/>
      <sparseX i="228" alpha="-1386.64127501950338228" sparseCutoff="1.00000000000000000"/>
      <sparseX i="229" alpha="25734.38379247454940923" sparseCutoff="1.00000000000000000"/>
      <sparseX i="230" alpha="3352.15744385641801273" sparseCutoff="1.00000000000000000"/>
      <sparseX i="231" alpha="-10252.65576192132357392" sparseCutoff="1.00000000000000000"/>
      <sparseX i="232" alpha="-8681.33138696789683308" sparseCutoff="1.00000000000000000"/>
      <sparseX i="233" alpha="-558.66928364478667390" sparseCutoff="1.00000000000000000"/>
      <sparseX i="234" alpha="9853.70212566755799344" sparseCutoff="1.00000000000000000"/>
      <sparseX i="235" alpha="7182.00492048509386223" sparseCutoff="1.00000000000000000"/>
      <sparseX i="236" alpha="8419.27547776906794752" sparseCutoff="1.00000000000000000"/>
      <sparseX i="237" alpha="5633.10180969306838961" sparseCutoff="1.00000000000000000"/>
      <sparseX i="238" alpha="-6477.32636829251987365" sparseCutoff="1.00000000000000000"/>
      <sparseX i="239" alpha="10771.94298326019998058" sparseCutoff="1.00000000000000000"/>
      <sparseX i="240" alpha="1141.85408031644919902" sparseCutoff="1.00000000000000000"/>
      <sparseX i="241" alpha="-23085.75890169182093814" sparseCutoff="1.00000000000000000"/>
      <sparseX i="242" alpha="7792.60108411201963463" sparseCutoff="1.00000000000000000"/>
      <sparseX i="243" alpha="-1549.57662381722639111" sparseCutoff="1.00000000000000000"/>
      <sparseX i="244" alpha="6582.11329941299209167" sparseCutoff="1.00000000000000000"/>
      <sparseX i="245" alpha="6245.23021057373807707" sparseCutoff="1.00000000000000000"/>
      <sparseX i="246" alpha="7635.59669063201818062" sparseCutoff="1.00000000000000000"/>
      <sparseX i="247" alpha="2800.31026839871810807" sparseCutoff="1.00000000000000000"/>
      <sparseX i="248" alpha="-5220.79371510422151914" sparseCutoff="1.00000000000000000"/>
      <sparseX i="249" alpha="-21780.82488462237597560" sparseCutoff="1.00000000000000000"/>
      <sparseX i="250" alpha="2702.12375224538891416" sparseCutoff="1.00000000000000000"/>
      <sparseX i="251" alpha="3332.04515807817688255" sparseCutoff="1.00000000000000000"/>
      <sparseX i="252" alpha="7153.99581280556958518" sparseCutoff="1.00000000000000000"/>
      <sparseX i="253" alpha="5300.52496079513457516" sparseCutoff="1.00000000000000000"/>
      <sparseX i="254" alpha="-2636.48406136658604737" sparseCutoff="1.00000000000000000"/>
      <sparseX i="255" alpha="-4077.72684561399364611" sparseCutoff="1.00000000000000000"/>
      <sparseX i="256" alpha="-11294.52761984714379651" sparseCutoff="1.00000000000000000"/>
      <sparseX i="257" alpha="-3821.50602199091281364" sparseCutoff="1.00000000000000000"/>
      <sparseX i="258" alpha="4329.28860609631374246" sparseCutoff="1.00000000000000000"/>
      <sparseX i="259" alpha="9745.06116811707397574" sparseCutoff="1.00000000000000000"/>
      <sparseX i="260" alpha="-9978.43893545178070781" sparseCutoff="1.00000000000000000"/>
      <sparseX i="261" alpha="2386.48096786392670765" sparseCutoff="1.00000000000000000"/>
      <sparseX i="262" alpha="-3510.37773403227629387" sparseCutoff="1.00000000000000000"/>
      <sparseX i="263" alpha="-8371.43398022036308248" sparseCutoff="1.00000000000000000"/>
      <sparseX i="264" alpha="654.93800570295206853" sparseCutoff="1.00000000000000000"/>
      <sparseX i="265" alpha="-7154.05827421273716027" sparseCutoff="1.00000000000000000"/>
      <sparseX i="266" alpha="8691.48099255664419616" sparseCutoff="1.00000000000000000"/>
      <sparseX i="267" alpha="128.06446032484296893" sparseCutoff="1.00000000000000000"/>
      <sparseX i="268" alpha="-7058.12272306996601401" sparseCutoff="1.00000000000000000"/>
      <sparseX i="269" alpha="-950.03451059647341026" sparseCutoff="1.00000000000000000"/>
      <sparseX i="270" alpha="-6115.03336328229033825" sparseCutoff="1.00000000000000000"/>
      <sparseX i="271" alpha="1098.80571618340263740" sparseCutoff="1.00000000000000000"/>
      <sparseX i="272" alpha="-1126.11667784362816747" sparseCutoff="1.00000000000000000"/>
      <sparseX i="273" alpha="255.97354657741814776" sparseCutoff="1.00000000000000000"/>
      <sparseX i="274" alpha="-5630.40002677011034393" sparseCutoff="1.00000000000000000"/>
      <sparseX i="275" alpha="-23338.75338421648120857" sparseCutoff="1.00000000000000000"/>
      <sparseX i="276" alpha="258.55531910174966015" sparseCutoff="1.00000000000000000"/>
      <sparseX i="277" alpha="-9138.02003281218640041" sparseCutoff="1.00000000000000000"/>
      <sparseX i="278" alpha="2181.90503734548155990" sparseCutoff="1.00000000000000000"/>
      <sparseX i="279" alpha="-11619.16754973311617505" sparseCutoff="1.00000000000000000"/>
      <sparseX i="280" alpha="3968.73767062086244550" sparseCutoff="1.00000000000000000"/>
      <sparseX i="281" alpha="16385.67703643761706189" sparseCutoff="1.00000000000000000"/>
      <sparseX i="282" alpha="10492.79098115632041299" sparseCutoff="1.00000000000000000"/>
      <sparseX i="283" alpha="1556.45837011608614375" sparseCutoff="1.00000000000000000"/>
      <sparseX i="284" alpha="8720.86693015324090084" sparseCutoff="1.00000000000000000"/>
      <sparseX i="285" alpha="11240.58284406298662361" sparseCutoff="1.00000000000000000"/>
      <sparseX i="286" alpha="1927.13464369721714320" sparseCutoff="1.00000000000000000"/>
      <sparseX i="287" alpha="668.90914323308379608" sparseCutoff="1.00000000000000000"/>
      <sparseX i="288" alpha="-1410.04120808517518526" sparseCutoff="1.00000000000000000"/>
      <sparseX i="289" alpha="13098.09039876820861537" sparseCutoff="1.00000000000000000"/>
      <sparseX i="290" alpha="4390.80917104027957976" sparseCutoff="1.00000000000000000"/>
      <sparseX i="291" alpha="-10383.60112243271760235" sparseCutoff="1.00000000000000000"/>
      <sparseX i="292" alpha="-9122.75708121189563826" sparseCutoff="1.00000000000000000"/>
      <sparseX i="293" alpha="2875.42474296366572162" sparseCutoff="1.00000000000000000"/>
      <sparseX i="294" alpha="-23324.28895189150716760" sparseCutoff="1.00000000000000000"/>
      <sparseX i="295" alpha="-5294.26649203985834902" sparseCutoff="1.00000000000000000"/>
      <sparseX i="296" alpha="7210.39649742555047851" sparseCutoff="1.00000000000000000"/>
      <sparseX i="297" alpha="-7561.98135989208822139" sparseCutoff="1.00000000000000000"/>
      <sparseX i="298" alpha="-3121.18628542698434103" sparseCutoff="1.00000000000000000"/>
      <sparseX i="299" alpha="-3259.17560801481931776" sparseCutoff="1.00000000000000000"/>
      <sparseX i="300" alpha="-8077.78079495021029288" sparseCutoff="1.00000000000000000"/>
      <sparseX i="301" alpha="9312.55108667953754775" sparseCutoff="1.00000000000000000"/>
      <sparseX i="302" alpha="-32.82775010421991624" sparseCutoff="1.00000000000000000"/>
      <sparseX i="303" alpha="-7426.97225330981564184" sparseCutoff="1.00000000000000000"/>
      <sparseX i="304" alpha="-1625.98553119187840821" sparseCutoff="1.00000000000000000"/>
      <sparseX i="305" alpha="-9820.86324696730844153" sparseCutoff="1.00000000000000000"/>
      <sparseX i="306" alpha="-1453.15346752904315508" sparseCutoff="1.00000000000000000"/>
      <sparseX i="307" alpha="-20133.93779525561694754" sparseCutoff="1.00000000000000000"/>
      <sparseX i="308" alpha="-5448.40601115160188783" sparseCutoff="1.00000000000000000"/>
      <sparseX i="309" alpha="-1263.89053277319339941" sparseCutoff="1.00000000000000000"/>
      <sparseX i="310" alpha="6290.66324707105468406" sparseCutoff="1.00000000000000000"/>
      <sparseX i="311" alpha="20085.65822605705761816" sparseCutoff="1.00000000000000000"/>
      <sparseX i="312" alpha="10455.40511747626260330" sparseCutoff="1.00000000000000000"/>
      <sparseX i="313" alpha="-5251.41722967132864142" sparseCutoff="1.00000000000000000"/>
      <sparseX i="314" alpha="25602.95227045186038595" sparseCutoff="1.00000000000000000"/>
      <sparseX i="315" alpha="-16717.20494002374471165" sparseCutoff="1.00000000000000000"/>
      <sparseX i="316" alpha="-4402.65762412366984790" sparseCutoff="1.00000000000000000"/>
      <sparseX i="317" alpha="-6407.41787614716849930" sparseCutoff="1.00000000000000000"/>
      <sparseX i="318" alpha="-3068.35619676531996447" sparseCutoff="1.00000000000000000"/>
      <sparseX i="319" alpha="-15138.65218092006398365" sparseCutoff="1.00000000000000000"/>
      <sparseX i="320" alpha="-5714.19298809669271577" sparseCutoff="1.00000000000000000"/>
      <sparseX i="321" alpha="-10720.76925234301234013" sparseCutoff="1.00000000000000000"/>
      <sparseX i="322" alpha="-2846.47577384410396917" sparseCutoff="1.00000000000000000"/>
      <sparseX i="323" alpha="-13898.06318441257826635" sparseCutoff="1.00000000000000000"/>
      <sparseX i="324" alpha="5779.06080088323869859" sparseCutoff="1.00000000000000000"/>
      <sparseX i="325" alpha="-4707.76793814415850647" sparseCutoff="1.00000000000000000"/>
      <sparseX i="326" alpha="4082.56267692855681162" sparseCutoff="1.00000000000000000"/>
      <sparseX i="327" alpha="27786.49793798007158330" sparseCutoff="1.00000000000000000"/>
      <sparseX i="328" alpha="2226.15984366916654835" sparseCutoff="1.00000000000000000"/>
      <sparseX i="329" alpha="1644.63584834266293910" sparseCutoff="1.00000000000000000"/>
      <sparseX i="330" alpha="3080.82489133465605846" sparseCutoff="1.00000000000000000"/>
      <sparseX i="331" alpha="717.68091705415031356" sparseCutoff="1.00000000000000000"/>
      <sparseX i="332" alpha="9541.35136074696674768" sparseCutoff="1.00000000000000000"/>
      <sparseX i="333" alpha="10972.86509260430466384" sparseCutoff="1.00000000000000000"/>
      <sparseX i="334" alpha="16703.80731479528549244" sparseCutoff="1.00000000000000000"/>
      <sparseX i="335" alpha="-7108.41872279503604659" sparseCutoff="1.00000000000000000"/>
      <sparseX i="336" alpha="8476.24646304823545506" sparseCutoff="1.00000000000000000"/>
      <sparseX i="337" alpha="-13366.85107602916468750" sparseCutoff="1.00000000000000000"/>
      <sparseX i="338" alpha="-3598.38774162377558241" sparseCutoff="1.00000000000000000"/>
      <sparseX i="339" alpha="-4048.91924097420314865" sparseCutoff="1.00000000000000000"/>
      <sparseX i="340" alpha="-55.05517196192538165" sparseCutoff="1.00000000000000000"/>
      <sparseX i="341" alpha="2410.20385661811133104" sparseCutoff="1.00000000000000000"/>
      <sparseX i="342" alpha="8441.03420589960478537" sparseCutoff="1.00000000000000000"/>
      <sparseX i="343" alpha="12975.91678605554261594" sparseCutoff="1.00000000000000000"/>
      <sparseX i="344" alpha="-5948.88349762269353960" sparseCutoff="1.00000000000000000"/>
      <sparseX i="345" alpha="-9782.46748087349624257" sparseCutoff="1.00000000000000000"/>
      <sparseX i="346" alpha="-7380.64101662290158856" sparseCutoff="1.00000000000000000"/>
      <sparseX i="347" alpha="62.45481269277296121" sparseCutoff="1.00000000000000000"/>
      <sparseX i="348" alpha="11930.00544469624219346" sparseCutoff="1.00000000000000000"/>
      <sparseX i="349" alpha="-5466.78402037330397434" sparseCutoff="1.00000000000000000"/>
      <sparseX i="350" alpha="4276.74791249865029386" sparseCutoff="1.00000000000000000"/>
      <sparseX i="351" alpha="4162.10535244485799922" sparseCutoff="1.00000000000000000"/>
      <sparseX i="352" alpha="6161.31471297372172558" sparseCutoff="1.00000000000000000"/>
      <sparseX i="353" alpha="-12194.01892262166984437" sparseCutoff="1.00000000000000000"/>
      <sparseX i="354" alpha="953.84514547855337696" sparseCutoff="1.00000000000000000"/>
      <sparseX i="355" alpha="-3254.43871376876313661" sparseCutoff="1.00000000000000000"/>
      <sparseX i="356" alpha="518.55065757704880980" sparseCutoff="1.00000000000000000"/>
      <sparseX i="357" alpha="-3115.26594951387960464" sparseCutoff="1.00000000000000000"/>
      <sparseX i="358" alpha="-7074.87425118742430641" sparseCutoff="1.00000000000000000"/>
      <sparseX i="359" alpha="-719.16798647603741301" sparseCutoff="1.00000000000000000"/>
      <sparseX i="360" alpha="677.24298585239466775" sparseCutoff="1.00000000000000000"/>
      <sparseX i="361" alpha="-3470.16781803547519303" sparseCutoff="1.00000000000000000"/>
      <sparseX i="362" alpha="-4113.95443387987961614" sparseCutoff="1.00000000000000000"/>
      <sparseX i="363" alpha="358.00843917705691410" sparseCutoff="1.00000000000000000"/>
      <sparseX i="364" alpha="-6244.80543402326202340" sparseCutoff="1.00000000000000000"/>
      <sparseX i="365" alpha="230.05331224386742406" sparseCutoff="1.00000000000000000"/>
      <sparseX i="366" alpha="5700.10921255183257017" sparseCutoff="1.00000000000000000"/>
      <sparseX i="367" alpha="8515.48951718699026969" sparseCutoff="1.00000000000000000"/>
      <sparseX i="368" alpha="-9963.73748952986170480" sparseCutoff="1.00000000000000000"/>
      <sparseX i="369" alpha="1747.88308089792553801" sparseCutoff="1.00000000000000000"/>
      <sparseX i="370" alpha="8513.59254764909201185" sparseCutoff="1.00000000000000000"/>
      <sparseX i="371" alpha="11132.70999186869812547" sparseCutoff="1.00000000000000000"/>
      <sparseX i="372" alpha="2942.12433451520973904" sparseCutoff="1.00000000000000000"/>
      <sparseX i="373" alpha="-208.55214368907306266" sparseCutoff="1.00000000000000000"/>
      <sparseX i="374" alpha="6577.64883942948927142" sparseCutoff="1.00000000000000000"/>
      <sparseX i="375" alpha="-655.36899686290792033" sparseCutoff="1.00000000000000000"/>
      <sparseX i="376" alpha="-7068.39118174679879303" sparseCutoff="1.00000000000000000"/>
      <sparseX i="377" alpha="3742.73255219716793363" sparseCutoff="1.00000000000000000"/>
      <sparseX i="378" alpha="-3813.11596733373835377" sparseCutoff="1.00000000000000000"/>
      <sparseX i="379" alpha="-4720.50837740796396247" sparseCutoff="1.00000000000000000"/>
      <sparseX i="380" alpha="13572.04457193949929206" sparseCutoff="1.00000000000000000"/>
      <sparseX i="381" alpha="-13428.03961453768170031" sparseCutoff="1.00000000000000000"/>
      <sparseX i="382" alpha="-11859.27350093021414068" sparseCutoff="1.00000000000000000"/>
      <sparseX i="383" alpha="19600.89331264077554806" sparseCutoff="1.00000000000000000"/>
      <sparseX i="384" alpha="-5478.42579043398654903" sparseCutoff="1.00000000000000000"/>
      <sparseX i="385" alpha="13254.10440841876334161" sparseCutoff="1.00000000000000000"/>
      <sparseX i="386" alpha="8529.25774530446324206" sparseCutoff="1.00000000000000000"/>
      <sparseX i="387" alpha="-7510.93406343382957857" sparseCutoff="1.00000000000000000"/>
      <sparseX i="388" alpha="-3511.97903869533274701" sparseCutoff="1.00000000000000000"/>
      <sparseX i="389" alpha="-1528.79853893160202460" sparseCutoff="1.00000000000000000"/>
      <sparseX i="390" alpha="1369.89033908991950739" sparseCutoff="1.00000000000000000"/>
      <sparseX i="391" alpha="13582.41459036874766753" sparseCutoff="1.00000000000000000"/>
      <sparseX i="392" alpha="-10164.07439932908346236" sparseCutoff="1.00000000000000000"/>
      <sparseX i="393" alpha="4784.19767402714842319" sparseCutoff="1.00000000000000000"/>
      <sparseX i="394" alpha="-7752.68198521472368157" sparseCutoff="1.00000000000000000"/>
      <sparseX i="395" alpha="5971.25569971353343135" sparseCutoff="1.00000000000000000"/>
      <sparseX i="396" alpha="-464.85959514305886842" sparseCutoff="1.00000000000000000"/>
      <sparseX i="397" alpha="6682.21602021643684566" sparseCutoff="1.00000000000000000"/>
      <sparseX i="398" alpha="494.53903176707643752" sparseCutoff="1.00000000000000000"/>
      <sparseX i="399" alpha="7342.66522380890455679" sparseCutoff="1.00000000000000000"/>
      <sparseX i="400" alpha="1458.08394234398633671" sparseCutoff="1.00000000000000000"/>
      <sparseX i="401" alpha="1713.58153326048955023" sparseCutoff="1.00000000000000000"/>
      <sparseX i="402" alpha="184.67379410265658635" sparseCutoff="1.00000000000000000"/>
      <sparseX i="403" alpha="7999.15773886936494819" sparseCutoff="1.00000000000000000"/>
      <sparseX i="404" alpha="24555.00536298494989751" sparseCutoff="1.00000000000000000"/>
      <sparseX i="405" alpha="2012.97233813488605847" sparseCutoff="1.00000000000000000"/>
      <sparseX i="406" alpha="7823.24759289986013755" sparseCutoff="1.00000000000000000"/>
      <sparseX i="407" alpha="2637.92562186421264414" sparseCutoff="1.00000000000000000"/>
      <sparseX i="408" alpha="-21079.35871666133971303" sparseCutoff="1.00000000000000000"/>
      <sparseX i="409" alpha="10826.64612862421199679" sparseCutoff="1.00000000000000000"/>
      <sparseX i="410" alpha="-1580.29591848731092796" sparseCutoff="1.00000000000000000"/>
      <sparseX i="411" alpha="-10791.51239531837018149" sparseCutoff="1.00000000000000000"/>
      <sparseX i="412" alpha="-2317.33506155117265735" sparseCutoff="1.00000000000000000"/>
      <sparseX i="413" alpha="3198.61143735984569503" sparseCutoff="1.00000000000000000"/>
      <sparseX i="414" alpha="948.21942721435436852" sparseCutoff="1.00000000000000000"/>
      <sparseX i="415" alpha="-15313.26723455259343609" sparseCutoff="1.00000000000000000"/>
      <sparseX i="416" alpha="-3389.68706894284150621" sparseCutoff="1.00000000000000000"/>
      <sparseX i="417" alpha="3778.66295577009532280" sparseCutoff="1.00000000000000000"/>
      <sparseX i="418" alpha="-8162.77256046491675079" sparseCutoff="1.00000000000000000"/>
      <sparseX i="419" alpha="2446.02739812151094156" sparseCutoff="1.00000000000000000"/>
      <sparseX i="420" alpha="1215.46888067478744233" sparseCutoff="1.00000000000000000"/>
      <sparseX i="421" alpha="8682.32947006478752883" sparseCutoff="1.00000000000000000"/>
      <sparseX i="422" alpha="14019.92733174994828005" sparseCutoff="1.00000000000000000"/>
      <sparseX i="423" alpha="-8120.77132229752623971" sparseCutoff="1.00000000000000000"/>
      <sparseX i="424" alpha="-3864.69752578325551440" sparseCutoff="1.00000000000000000"/>
      <sparseX i="425" alpha="11931.93626116617633670" sparseCutoff="1.00000000000000000"/>
      <sparseX i="426" alpha="-10160.29959748800683883" sparseCutoff="1.00000000000000000"/>
      <sparseX i="427" alpha="-17136.87543346323582227" sparseCutoff="1.00000000000000000"/>
      <sparseX i="428" alpha="-6727.29056073612628097" sparseCutoff="1.00000000000000000"/>
      <sparseX i="429" alpha="114.88072402752044354" sparseCutoff="1.00000000000000000"/>
      <sparseX i="430" alpha="-9308.03582619599364989" sparseCutoff="1.00000000000000000"/>
      <sparseX i="431" alpha="-3280.52254017347968329" sparseCutoff="1.00000000000000000"/>
      <sparseX i="432" alpha="1673.01553471289821573" sparseCutoff="1.00000000000000000"/>
      <sparseX i="433" alpha="9750.00814838555925235" sparseCutoff="1.00000000000000000"/>
      <sparseX i="434" alpha="-3831.79304913102896535" sparseCutoff="1.00000000000000000"/>
      <sparseX i="435" alpha="340.26527044862859839" sparseCutoff="1.00000000000000000"/>
      <sparseX i="436" alpha="12860.07830854554595135" sparseCutoff="1.00000000000000000"/>
      <sparseX i="437" alpha="19424.82136263080610661" sparseCutoff="1.00000000000000000"/>
      <sparseX i="438" alpha="-6351.09411547056333802" sparseCutoff="1.00000000000000000"/>
      <sparseX i="439" alpha="8696.12058230805087078" sparseCutoff="1.00000000000000000"/>
      <sparseX i="440" alpha="8521.45224031815450871" sparseCutoff="1.00000000000000000"/>
      <sparseX i="441" alpha="382.26451966550024508" sparseCutoff="1.00000000000000000"/>
      <sparseX i="442" alpha="-1015.55092232476738445" sparseCutoff="1.00000000000000000"/>
      <sparseX i="443" alpha="3130.18405168173057973" sparseCutoff="1.00000000000000000"/>
      <sparseX i="444" alpha="3122.04923323021921533" sparseCutoff="1.00000000000000000"/>
      <sparseX i="445" alpha="-16384.51701351160591003" sparseCutoff="1.00000000000000000"/>
      <sparseX i="446" alpha="-6988.84355021331248281" sparseCutoff="1.00000000000000000"/>
      <sparseX i="447" alpha="-3608.30516425830273874" sparseCutoff="1.00000000000000000"/>
      <sparseX i="448" alpha="-3581.34618891404625174" sparseCutoff="1.00000000000000000"/>
      <sparseX i="449" alpha="12169.23258828425605316" sparseCutoff="1.00000000000000000"/>
      <sparseX i="450" alpha="4019.43655891668004188" sparseCutoff="1.00000000000000000"/>
      <sparseX i="451" alpha="-7106.94727538474580797" sparseCutoff="1.00000000000000000"/>
      <sparseX i="452" alpha="9694.93959488915061229" sparseCutoff="1.00000000000000000"/>
      <sparseX i="453" alpha="-5.53148769166587773" sparseCutoff="1.00000000000000000"/>
      <sparseX i="454" alpha="-6431.22723518359453010" sparseCutoff="1.00000000000000000"/>
      <sparseX i="455" alpha="-792.66556398897353120" sparseCutoff="1.00000000000000000"/>
      <sparseX i="456" alpha="8485.57228520934040716" sparseCutoff="1.00000000000000000"/>
      <sparseX i="457" alpha="-14115.28049798195024778" sparseCutoff="1.00000000000000000"/>
      <sparseX i="458" alpha="4037.90078149337614377" sparseCutoff="1.00000000000000000"/>
      <sparseX i="459" alpha="-7502.41015044247342303" sparseCutoff="1.00000000000000000"/>
      <sparseX i="460" alpha="-16771.02955823680895264" sparseCutoff="1.00000000000000000"/>
      <sparseX i="461" alpha="-5887.24706378061910073" sparseCutoff="1.00000000000000000"/>
      <sparseX i="462" alpha="-2532.27090341760958836" sparseCutoff="1.00000000000000000"/>
      <sparseX i="463" alpha="181.05743441662372106" sparseCutoff="1.00000000000000000"/>
      <sparseX i="464" alpha="-4353.85090475925062492" sparseCutoff="1.00000000000000000"/>
      <sparseX i="465" alpha="-10050.91746938013420731" sparseCutoff="1.00000000000000000"/>
      <sparseX i="466" alpha="-5634.83151657090820663" sparseCutoff="1.00000000000000000"/>
      <sparseX i="467" alpha="-4269.56442296778823220" sparseCutoff="1.00000000000000000"/>
      <sparseX i="468" alpha="1344.37037734428781732" sparseCutoff="1.00000000000000000"/>
      <sparseX i="469" alpha="4792.78640385403468827" sparseCutoff="1.00000000000000000"/>
      <sparseX i="470" alpha="-5167.50634371247724630" sparseCutoff="1.00000000000000000"/>
      <sparseX i="471" alpha="-1065.11899087799088193" sparseCutoff="1.00000000000000000"/>
      <sparseX i="472" alpha="-831.70816903782429108" sparseCutoff="1.00000000000000000"/>
      <sparseX i="473" alpha="9960.78936256220003997" sparseCutoff="1.00000000000000000"/>
      <sparseX i="474" alpha="8259.12718339234561427" sparseCutoff="1.00000000000000000"/>
      <sparseX i="475" alpha="12283.74176196669941419" sparseCutoff="1.00000000000000000"/>
      <sparseX i="476" alpha="1899.21450778958092087" sparseCutoff="1.00000000000000000"/>
      <sparseX i="477" alpha="-6356.20645337226960692" sparseCutoff="1.00000000000000000"/>
      <sparseX i="478" alpha="-267.03110795971798552" sparseCutoff="1.00000000000000000"/>
      <sparseX i="479" alpha="99.26880866983790952" sparseCutoff="1.00000000000000000"/>
      <sparseX i="480" alpha="-59.57530224710730238" sparseCutoff="1.00000000000000000"/>
      <sparseX i="481" alpha="469.18566100664168061" sparseCutoff="1.00000000000000000"/>
      <sparseX i="482" alpha="96.23350460641438531" sparseCutoff="1.00000000000000000"/>
      <sparseX i="483" alpha="-64.28861076107642702" sparseCutoff="1.00000000000000000"/>
      <sparseX i="484" alpha="-429.10100799667975480" sparseCutoff="1.00000000000000000"/>
      <sparseX i="485" alpha="255.17440223665889221" sparseCutoff="1.00000000000000000"/>
      <sparseX i="486" alpha="-365.83311990611173314" sparseCutoff="1.00000000000000000"/>
      <sparseX i="487" alpha="104.63380780315029028" sparseCutoff="1.00000000000000000"/>
      <sparseX i="488" alpha="112.85408390623163655" sparseCutoff="1.00000000000000000"/>
      <sparseX i="489" alpha="139.24439696317284643" sparseCutoff="1.00000000000000000"/>
      <sparseX i="490" alpha="1540.58418245501752608" sparseCutoff="1.00000000000000000"/>
      <sparseX i="491" alpha="-315.22061109515897215" sparseCutoff="1.00000000000000000"/>
      <sparseX i="492" alpha="-89.44564311389083855" sparseCutoff="1.00000000000000000"/>
      <sparseX i="493" alpha="-252.68673369446398169" sparseCutoff="1.00000000000000000"/>
      <sparseX i="494" alpha="10.68695315641469712" sparseCutoff="1.00000000000000000"/>
      <sparseX i="495" alpha="-634.90746290827041776" sparseCutoff="1.00000000000000000"/>
      <sparseX i="496" alpha="-364.67811698493500217" sparseCutoff="1.00000000000000000"/>
      <sparseX i="497" alpha="2661.84037676392154026" sparseCutoff="1.00000000000000000"/>
      <sparseX i="498" alpha="2997.75493066415992871" sparseCutoff="1.00000000000000000"/>
      <sparseX i="499" alpha="-3831.89355872881696996" sparseCutoff="1.00000000000000000"/>
      <sparseX i="500" alpha="-423.08790141447047972" sparseCutoff="1.00000000000000000"/>
      <sparseX i="501" alpha="-5433.86710425348428544" sparseCutoff="1.00000000000000000"/>
      <sparseX i="502" alpha="-115.51285426892793851" sparseCutoff="1.00000000000000000"/>
      <sparseX i="503" alpha="912.54433552164732646" sparseCutoff="1.00000000000000000"/>
      <sparseX i="504" alpha="-328.68388805741551550" sparseCutoff="1.00000000000000000"/>
      <sparseX i="505" alpha="-2367.01892934798934220" sparseCutoff="1.00000000000000000"/>
      <sparseX i="506" alpha="-1638.32585386283540174" sparseCutoff="1.00000000000000000"/>
      <sparseX i="507" alpha="338.00064481508053404" sparseCutoff="1.00000000000000000"/>
      <sparseX i="508" alpha="-452.24715728823372274" sparseCutoff="1.00000000000000000"/>
      <sparseX i="509" alpha="-210.47681782570884934" sparseCutoff="1.00000000000000000"/>
      <sparseX i="510" alpha="301.41285750132652765" sparseCutoff="1.00000000000000000"/>
      <sparseX i="511" alpha="94.28169948843361681" sparseCutoff="1.00000000000000000"/>
      <sparseX i="512" alpha="1038.86971958613435163" sparseCutoff="1.00000000000000000"/>
      <sparseX i="513" alpha="-2481.67415457290553604" sparseCutoff="1.00000000000000000"/>
      <sparseX i="514" alpha="575.84812172642125461" sparseCutoff="1.00000000000000000"/>
      <sparseX i="515" alpha="-3458.97307521818174791" sparseCutoff="1.00000000000000000"/>
      <sparseX i="516" alpha="2856.32380126202906467" sparseCutoff="1.00000000000000000"/>
      <sparseX i="517" alpha="-8.03710293434944845" sparseCutoff="1.00000000000000000"/>
      <sparseX i="518" alpha="-65.00220307941775388" sparseCutoff="1.00000000000000000"/>
      <sparseX i="519" alpha="107.87052559515295513" sparseCutoff="1.00000000000000000"/>
      <sparseX i="520" alpha="-15.75912852719316959" sparseCutoff="1.00000000000000000"/>
      <sparseX i="521" alpha="986.14707145062391191" sparseCutoff="1.00000000000000000"/>
      <sparseX i="522" alpha="227.41365986097619611" sparseCutoff="1.00000000000000000"/>
      <sparseX i="523" alpha="4983.15812295531031850" sparseCutoff="1.00000000000000000"/>
      <sparseX i="524" alpha="-17123.76555548962278408" sparseCutoff="1.00000000000000000"/>
      <sparseX i="525" alpha="271.18784886366285036" sparseCutoff="1.00000000000000000"/>
      <sparseX i="526" alpha="174.75337000078940264" sparseCutoff="1.00000000000000000"/>
      <sparseX i="527" alpha="2332.35707384593843017" sparseCutoff="1.00000000000000000"/>
      <sparseX i="528" alpha="-6955.54519161353255186" sparseCutoff="1.00000000000000000"/>
      <sparseX i="529" alpha="845.78207321968034194" sparseCutoff="1.00000000000000000"/>
      <sparseX i="530" alpha="-1675.99986926963492806" sparseCutoff="1.00000000000000000"/>
      <sparseX i="531" alpha="3108.68670559306474388" sparseCutoff="1.00000000000000000"/>
      <sparseX i="532" alpha="3733.07919731554147802" sparseCutoff="1.00000000000000000"/>
      <sparseX i="533" alpha="-2184.25210474224968493" sparseCutoff="1.00000000000000000"/>
      <sparseX i="534" alpha="-3578.63381356673380651" sparseCutoff="1.00000000000000000"/>
      <sparseX i="535" alpha="-548.34016594648005594" sparseCutoff="1.00000000000000000"/>
      <sparseX i="536" alpha="-10.01699882364418137" sparseCutoff="1.00000000000000000"/>
      <sparseX i="537" alpha="4543.20259485179303738" sparseCutoff="1.00000000000000000"/>
      <sparseX i="538" alpha="-894.72541047960260130" sparseCutoff="1.00000000000000000"/>
      <sparseX i="539" alpha="4122.38919160331988678" sparseCutoff="1.00000000000000000"/>
      <sparseX i="540" alpha="-3367.98557497009051076" sparseCutoff="1.00000000000000000"/>
      <sparseX i="541" alpha="-3061.34474235999687153" sparseCutoff="1.00000000000000000"/>
      <sparseX i="542" alpha="3548.93225816093763569" sparseCutoff="1.00000000000000000"/>
      <sparseX i="543" alpha="-5919.60096947178499249" sparseCutoff="1.00000000000000000"/>
      <sparseX i="544" alpha="-10.99412294311123439" sparseCutoff="1.00000000000000000"/>
      <sparseX i="545" alpha="2736.41317545223364505" sparseCutoff="1.00000000000000000"/>
      <sparseX i="546" alpha="12194.63375998421361146" sparseCutoff="1.00000000000000000"/>
      <sparseX i="547" alpha="58.73572050019877366" sparseCutoff="1.00000000000000000"/>
      <sparseX i="548" alpha="4284.99647543813625816" sparseCutoff="1.00000000000000000"/>
      <sparseX i="549" alpha="5854.07011717687691998" sparseCutoff="1.00000000000000000"/>
      <sparseX i="550" alpha="-10429.81353900466456253" sparseCutoff="1.00000000000000000"/>
      <sparseX i="551" alpha="8751.29248482721413893" sparseCutoff="1.00000000000000000"/>
      <sparseX i="552" alpha="1569.45580391027124278" sparseCutoff="1.00000000000000000"/>
      <sparseX i="553" alpha="-8247.38442138536447601" sparseCutoff="1.00000000000000000"/>
      <sparseX i="554" alpha="-3068.91422740692178195" sparseCutoff="1.00000000000000000"/>
      <sparseX i="555" alpha="-1245.85380054258530436" sparseCutoff="1.00000000000000000"/>
      <sparseX i="556" alpha="-1186.08136814241902357" sparseCutoff="1.00000000000000000"/>
      <sparseX i="557" alpha="-1712.85310465707721050" sparseCutoff="1.00000000000000000"/>
      <sparseX i="558" alpha="16264.34963144739595009" sparseCutoff="1.00000000000000000"/>
      <sparseX i="559" alpha="4223.85416009590971953" sparseCutoff="1.00000000000000000"/>
      <sparseX i="560" alpha="2737.46628109619859970" sparseCutoff="1.00000000000000000"/>
      <sparseX i="561" alpha="-2159.87659335072294198" sparseCutoff="1.00000000000000000"/>
      <sparseX i="562" alpha="-6753.68476260862007621" sparseCutoff="1.00000000000000000"/>
      <sparseX i="563" alpha="48.76957629783986192" sparseCutoff="1.00000000000000000"/>
      <sparseX i="564" alpha="3703.54955543932192086" sparseCutoff="1.00000000000000000"/>
      <sparseX i="565" alpha="-4273.04815726365268347" sparseCutoff="1.00000000000000000"/>
      <sparseX i="566" alpha="5910.04170519623585278" sparseCutoff="1.00000000000000000"/>
      <sparseX i="567" alpha="45.34088837852764442" sparseCutoff="1.00000000000000000"/>
      <sparseX i="568" alpha="1708.67907637192388393" sparseCutoff="1.00000000000000000"/>
      <sparseX i="569" alpha="-6841.60924241500470089" sparseCutoff="1.00000000000000000"/>
      <sparseX i="570" alpha="-7117.48883268856752693" sparseCutoff="1.00000000000000000"/>
      <sparseX i="571" alpha="423.84043083612311875" sparseCutoff="1.00000000000000000"/>
      <sparseX i="572" alpha="-192.64117175574156704" sparseCutoff="1.00000000000000000"/>
      <sparseX i="573" alpha="-6973.67140403549910843" sparseCutoff="1.00000000000000000"/>
      <sparseX i="574" alpha="-6653.40264961427419621" sparseCutoff="1.00000000000000000"/>
      <sparseX i="575" alpha="-5912.45928753124007926" sparseCutoff="1.00000000000000000"/>
      <sparseX i="576" alpha="3873.11105553277184299" sparseCutoff="1.00000000000000000"/>
      <sparseX i="577" alpha="874.02996285477195215" sparseCutoff="1.00000000000000000"/>
      <sparseX i="578" alpha="-1630.19203624315287016" sparseCutoff="1.00000000000000000"/>
      <sparseX i="579" alpha="10812.05257121280737920" sparseCutoff="1.00000000000000000"/>
      <sparseX i="580" alpha="-2228.13895184297507512" sparseCutoff="1.00000000000000000"/>
      <sparseX i="581" alpha="8223.27864649944967823" sparseCutoff="1.00000000000000000"/>
      <sparseX i="582" alpha="-29378.08703780139330775" sparseCutoff="1.00000000000000000"/>
      <sparseX i="583" alpha="1520.51468784904841414" sparseCutoff="1.00000000000000000"/>
      <sparseX i="584" alpha="914.12684443583657412" sparseCutoff="1.00000000000000000"/>
      <sparseX i="585" alpha="-3518.67887218726036735" sparseCutoff="1.00000000000000000"/>
      <sparseX i="586" alpha="-453.90617500224635705" sparseCutoff="1.00000000000000000"/>
      <sparseX i="587" alpha="-2246.17953625564223330" sparseCutoff="1.00000000000000000"/>
      <sparseX i="588" alpha="3036.90474337793284576" sparseCutoff="1.00000000000000000"/>
      <sparseX i="589" alpha="474.85561258251641448" sparseCutoff="1.00000000000000000"/>
      <sparseX i="590" alpha="21580.59554464424945763" sparseCutoff="1.00000000000000000"/>
      <sparseX i="591" alpha="5725.14880766929945821" sparseCutoff="1.00000000000000000"/>
      <sparseX i="592" alpha="-6233.73538464572447992" sparseCutoff="1.00000000000000000"/>
      <sparseX i="593" alpha="2972.45819526690593193" sparseCutoff="1.00000000000000000"/>
      <sparseX i="594" alpha="4290.70812094867960695" sparseCutoff="1.00000000000000000"/>
      <sparseX i="595" alpha="-5310.52544655111614702" sparseCutoff="1.00000000000000000"/>
      <sparseX i="596" alpha="-9911.46288710097724106" sparseCutoff="1.00000000000000000"/>
      <sparseX i="597" alpha="11441.22759317373129306" sparseCutoff="1.00000000000000000"/>
      <sparseX i="598" alpha="8970.51174910199915757" sparseCutoff="1.00000000000000000"/>
      <sparseX i="599" alpha="-2711.39811026787765513" sparseCutoff="1.00000000000000000"/>
      <sparseX i="600" alpha="-18809.41516252185101621" sparseCutoff="1.00000000000000000"/>
      <sparseX i="601" alpha="1174.26250202757864827" sparseCutoff="1.00000000000000000"/>
      <sparseX i="602" alpha="2590.09136347216599461" sparseCutoff="1.00000000000000000"/>
      <sparseX i="603" alpha="-7482.36223607642750721" sparseCutoff="1.00000000000000000"/>
      <sparseX i="604" alpha="-16875.39190923002388445" sparseCutoff="1.00000000000000000"/>
      <sparseX i="605" alpha="25045.06856538354259101" sparseCutoff="1.00000000000000000"/>
      <sparseX i="606" alpha="7967.09998204146177159" sparseCutoff="1.00000000000000000"/>
      <sparseX i="607" alpha="-2434.43253772503703658" sparseCutoff="1.00000000000000000"/>
      <sparseX i="608" alpha="25834.99420555528195109" sparseCutoff="1.00000000000000000"/>
      <sparseX i="609" alpha="4671.58031050025419972" sparseCutoff="1.00000000000000000"/>
      <sparseX i="610" alpha="2613.23610221856642966" sparseCutoff="1.00000000000000000"/>
      <sparseX i="611" alpha="-4900.86875794352999947" sparseCutoff="1.00000000000000000"/>
      <sparseX i="612" alpha="367.11430657481321305" sparseCutoff="1.00000000000000000"/>
      <sparseX i="613" alpha="-1616.74587926974322727" sparseCutoff="1.00000000000000000"/>
      <sparseX i="614" alpha="4953.48212688171406626" sparseCutoff="1.00000000000000000"/>
      <sparseX i="615" alpha="-8339.39302260357908381" sparseCutoff="1.00000000000000000"/>
      <sparseX i="616" alpha="-4387.10722326218365197" sparseCutoff="1.00000000000000000"/>
      <sparseX i="617" alpha="-1282.41873628396592721" sparseCutoff="1.00000000000000000"/>
      <sparseX i="618" alpha="-5206.13462930368041270" sparseCutoff="1.00000000000000000"/>
      <sparseX i="619" alpha="5991.15056204132451967" sparseCutoff="1.00000000000000000"/>
      <sparseX i="620" alpha="-1495.65583631400090781" sparseCutoff="1.00000000000000000"/>
      <sparseX i="621" alpha="11420.63312212083292252" sparseCutoff="1.00000000000000000"/>
      <sparseX i="622" alpha="-4827.38414517214732768" sparseCutoff="1.00000000000000000"/>
      <sparseX i="623" alpha="-5756.00744125757773872" sparseCutoff="1.00000000000000000"/>
      <sparseX i="624" alpha="5148.53437726643005590" sparseCutoff="1.00000000000000000"/>
      <sparseX i="625" alpha="-4128.53175131878833781" sparseCutoff="1.00000000000000000"/>
      <sparseX i="626" alpha="4435.10871171601502283" sparseCutoff="1.00000000000000000"/>
      <sparseX i="627" alpha="3064.80063107198611760" sparseCutoff="1.00000000000000000"/>
      <sparseX i="628" alpha="17362.75740271521135583" sparseCutoff="1.00000000000000000"/>
      <sparseX i="629" alpha="-5313.27514789615634072" sparseCutoff="1.00000000000000000"/>
      <sparseX i="630" alpha="-15956.74762790399108781" sparseCutoff="1.00000000000000000"/>
      <sparseX i="631" alpha="-6414.32194398687352077" sparseCutoff="1.00000000000000000"/>
      <sparseX i="632" alpha="-8982.97531084696493053" sparseCutoff="1.00000000000000000"/>
      <sparseX i="633" alpha="-2686.73760846347113329" sparseCutoff="1.00000000000000000"/>
      <sparseX i="634" alpha="17608.07585708207625430" sparseCutoff="1.00000000000000000"/>
      <sparseX i="635" alpha="11754.64862274869301473" sparseCutoff="1.00000000000000000"/>
      <sparseX i="636" alpha="-17750.50828201333933976" sparseCutoff="1.00000000000000000"/>
      <sparseX i="637" alpha="-1373.56373663594854406" sparseCutoff="1.00000000000000000"/>
      <sparseX i="638" alpha="-11655.31143412262827042" sparseCutoff="1.00000000000000000"/>
      <sparseX i="639" alpha="1972.24747782926669970" sparseCutoff="1.00000000000000000"/>
      <sparseX i="640" alpha="-56.63440684560940497" sparseCutoff="1.00000000000000000"/>
      <sparseX i="641" alpha="-1806.63093464050666626" sparseCutoff="1.00000000000000000"/>
      <sparseX i="642" alpha="2038.26234014482224666" sparseCutoff="1.00000000000000000"/>
      <sparseX i="643" alpha="-7636.57628166031008732" sparseCutoff="1.00000000000000000"/>
      <sparseX i="644" alpha="-468.10974271071523845" sparseCutoff="1.00000000000000000"/>
      <sparseX i="645" alpha="-6645.48378190386938513" sparseCutoff="1.00000000000000000"/>
      <sparseX i="646" alpha="6985.01616449969060341" sparseCutoff="1.00000000000000000"/>
      <sparseX i="647" alpha="8743.09721644587807532" sparseCutoff="1.00000000000000000"/>
      <sparseX i="648" alpha="-6734.12036733527475008" sparseCutoff="1.00000000000000000"/>
      <sparseX i="649" alpha="-7715.26043185828348214" sparseCutoff="1.00000000000000000"/>
      <sparseX i="650" alpha="-1553.79063422924809856" sparseCutoff="1.00000000000000000"/>
      <sparseX i="651" alpha="-8840.61355266187092639" sparseCutoff="1.00000000000000000"/>
      <sparseX i="652" alpha="2477.33439902462623650" sparseCutoff="1.00000000000000000"/>
      <sparseX i="653" alpha="-597.76970444397318261" sparseCutoff="1.00000000000000000"/>
      <sparseX i="654" alpha="-9109.56683508746573352" sparseCutoff="1.00000000000000000"/>
      <sparseX i="655" alpha="11820.65549341045880283" sparseCutoff="1.00000000000000000"/>
      <sparseX i="656" alpha="1792.38638475675179507" sparseCutoff="1.00000000000000000"/>
      <sparseX i="657" alpha="11550.74436239921487868" sparseCutoff="1.00000000000000000"/>
      <sparseX i="658" alpha="-10951.40595540666254237" sparseCutoff="1.00000000000000000"/>
      <sparseX i="659" alpha="-4905.80733582292123174" sparseCutoff="1.00000000000000000"/>
      <sparseX i="660" alpha="9788.67984247559797950" sparseCutoff="1.00000000000000000"/>
      <sparseX i="661" alpha="145.72847868357109746" sparseCutoff="1.00000000000000000"/>
      <sparseX i="662" alpha="326.42669840309326901" sparseCutoff="1.00000000000000000"/>
      <sparseX i="663" alpha="226.92828587938839746" sparseCutoff="1.00000000000000000"/>
      <sparseX i="664" alpha="17262.46303161835749052" sparseCutoff="1.00000000000000000"/>
      <sparseX i="665" alpha="-3659.88588976035453015" sparseCutoff="1.00000000000000000"/>
      <sparseX i="666" alpha="-4358.66455453954222321" sparseCutoff="1.00000000000000000"/>
      <sparseX i="667" alpha="-3886.67323580517768278" sparseCutoff="1.00000000000000000"/>
      <sparseX i="668" alpha="-1487.93782513805444978" sparseCutoff="1.00000000000000000"/>
      <sparseX i="669" alpha="-12873.73026716138883785" sparseCutoff="1.00000000000000000"/>
      <sparseX i="670" alpha="-643.11637443741176412" sparseCutoff="1.00000000000000000"/>
      <sparseX i="671" alpha="-2668.20621203419841549" sparseCutoff="1.00000000000000000"/>
      <sparseX i="672" alpha="13698.60456915634313191" sparseCutoff="1.00000000000000000"/>
      <sparseX i="673" alpha="-3412.47471946459518222" sparseCutoff="1.00000000000000000"/>
      <sparseX i="674" alpha="5165.69849169562439783" sparseCutoff="1.00000000000000000"/>
      <sparseX i="675" alpha="-8027.44535413493485976" sparseCutoff="1.00000000000000000"/>
      <sparseX i="676" alpha="-932.30973850961231619" sparseCutoff="1.00000000000000000"/>
      <sparseX i="677" alpha="-297.84336431779343002" sparseCutoff="1.00000000000000000"/>
      <sparseX i="678" alpha="807.10124789755718666" sparseCutoff="1.00000000000000000"/>
      <sparseX i="679" alpha="-2451.26475143116431354" sparseCutoff="1.00000000000000000"/>
      <sparseX i="680" alpha="485.73898104087845695" sparseCutoff="1.00000000000000000"/>
      <sparseX i="681" alpha="3374.13808108020566578" sparseCutoff="1.00000000000000000"/>
      <sparseX i="682" alpha="-7643.06131538903446199" sparseCutoff="1.00000000000000000"/>
      <sparseX i="683" alpha="6228.22682750955118536" sparseCutoff="1.00000000000000000"/>
      <sparseX i="684" alpha="7289.71730813776230207" sparseCutoff="1.00000000000000000"/>
      <sparseX i="685" alpha="-4423.18377453737139149" sparseCutoff="1.00000000000000000"/>
      <sparseX i="686" alpha="1265.19466215236775497" sparseCutoff="1.00000000000000000"/>
      <sparseX i="687" alpha="-698.76223475427389076" sparseCutoff="1.00000000000000000"/>
      <sparseX i="688" alpha="253.86904767874517574" sparseCutoff="1.00000000000000000"/>
      <sparseX i="689" alpha="-929.07974738046038965" sparseCutoff="1.00000000000000000"/>
      <sparseX i="690" alpha="-117.94690701253412612" sparseCutoff="1.00000000000000000"/>
      <sparseX i="691" alpha="-315.85296549266877264" sparseCutoff="1.00000000000000000"/>
      <sparseX i="692" alpha="-196.19294887575367170" sparseCutoff="1.00000000000000000"/>
      <sparseX i="693" alpha="430.51666951582166121" sparseCutoff="1.00000000000000000"/>
      <sparseX i="694" alpha="-5463.23810162700829096" sparseCutoff="1.00000000000000000"/>
      <sparseX i="695" alpha="1582.36047620800559343" sparseCutoff="1.00000000000000000"/>
      <sparseX i="696" alpha="1527.30530185113093466" sparseCutoff="1.00000000000000000"/>
      <sparseX i="697" alpha="-3182.81115464217418776" sparseCutoff="1.00000000000000000"/>
      <sparseX i="698" alpha="1111.77046547090117201" sparseCutoff="1.00000000000000000"/>
      <sparseX i="699" alpha="9835.27622421744854364" sparseCutoff="1.00000000000000000"/>
      <sparseX i="700" alpha="-6674.61973979678532487" sparseCutoff="1.00000000000000000"/>
      <sparseX i="701" alpha="4268.61724119600512495" sparseCutoff="1.00000000000000000"/>
      <sparseX i="702" alpha="-2910.68318749289983316" sparseCutoff="1.00000000000000000"/>
      <sparseX i="703" alpha="1146.81121407760815600" sparseCutoff="1.00000000000000000"/>
      <sparseX i="704" alpha="7181.91755441959048767" sparseCutoff="1.00000000000000000"/>
      <sparseX i="705" alpha="2204.04646589909589238" sparseCutoff="1.00000000000000000"/>
      <sparseX i="706" alpha="-2083.59629018835630632" sparseCutoff="1.00000000000000000"/>
      <sparseX i="707" alpha="1201.93794261679295232" sparseCutoff="1.00000000000000000"/>
      <sparseX i="708" alpha="150.16746102101234328" sparseCutoff="1.00000000000000000"/>
      <sparseX i="709" alpha="1768.73340778512192628" sparseCutoff="1.00000000000000000"/>
      <sparseX i="710" alpha="6721.96691807473234803" sparseCutoff="1.00000000000000000"/>
      <sparseX i="711" alpha="12672.74329187005787389" sparseCutoff="1.00000000000000000"/>
      <sparseX i="712" alpha="3839.39689451555886990" sparseCutoff="1.00000000000000000"/>
      <sparseX i="713" alpha="-9035.82400151502952212" sparseCutoff="1.00000000000000000"/>
      <sparseX i="714" alpha="-5149.36933381760081829" sparseCutoff="1.00000000000000000"/>
      <sparseX i="715" alpha="-3295.57162447140763106" sparseCutoff="1.00000000000000000"/>
      <sparseX i="716" alpha="714.15591533248709766" sparseCutoff="1.00000000000000000"/>
      <sparseX i="717" alpha="15944.92441934089765709" sparseCutoff="1.00000000000000000"/>
      <sparseX i="718" alpha="-5509.97582539702034410" sparseCutoff="1.00000000000000000"/>
      <sparseX i="719" alpha="458.28865944866885229" sparseCutoff="1.00000000000000000"/>
      <sparseX i="720" alpha="-5485.27679117916341056" sparseCutoff="1.00000000000000000"/>
      <sparseX i="721" alpha="994.57298822375935288" sparseCutoff="1.00000000000000000"/>
      <sparseX i="722" alpha="-1543.91811128651761464" sparseCutoff="1.00000000000000000"/>
      <sparseX i="723" alpha="-823.80096748297785325" sparseCutoff="1.00000000000000000"/>
      <sparseX i="724" alpha="3539.64218999136437560" sparseCutoff="1.00000000000000000"/>
      <sparseX i="725" alpha="-7189.18629609200343111" sparseCutoff="1.00000000000000000"/>
      <sparseX i="726" alpha="-8889.25196309250350168" sparseCutoff="1.00000000000000000"/>
      <sparseX i="727" alpha="13869.32539072788495105" sparseCutoff="1.00000000000000000"/>
      <sparseX i="728" alpha="-5850.72012340335732006" sparseCutoff="1.00000000000000000"/>
      <sparseX i="729" alpha="2375.48556527972459662" sparseCutoff="1.00000000000000000"/>
      <sparseX i="730" alpha="-15009.24334930133409216" sparseCutoff="1.00000000000000000"/>
      <sparseX i="731" alpha="8088.13118888998724287" sparseCutoff="1.00000000000000000"/>
      <sparseX i="732" alpha="-7240.20382761885684886" sparseCutoff="1.00000000000000000"/>
      <sparseX i="733" alpha="11938.31991197487877798" sparseCutoff="1.00000000000000000"/>
      <sparseX i="734" alpha="-4944.55794713583509292" sparseCutoff="1.00000000000000000"/>
      <sparseX i="735" alpha="5891.51545066508515447" sparseCutoff="1.00000000000000000"/>
      <sparseX i="736" alpha="-7964.23557226440516388" sparseCutoff="1.00000000000000000"/>
      <sparseX i="737" alpha="-8680.41029660984895600" sparseCutoff="1.00000000000000000"/>
      <sparseX i="738" alpha="9700.65798541811818723" sparseCutoff="1.00000000000000000"/>
      <sparseX i="739" alpha="15286.33061003773036646" sparseCutoff="1.00000000000000000"/>
      <sparseX i="740" alpha="10522.45036169376362523" sparseCutoff="1.00000000000000000"/>
      <sparseX i="741" alpha="-15295.14913610495932517" sparseCutoff="1.00000000000000000"/>
      <sparseX i="742" alpha="9177.48948995817590912" sparseCutoff="1.00000000000000000"/>
      <sparseX i="743" alpha="-13074.07278739752837282" sparseCutoff="1.00000000000000000"/>
      <sparseX i="744" alpha="-3067.36840185062465025" sparseCutoff="1.00000000000000000"/>
      <sparseX i="745" alpha="3277.56499326251196180" sparseCutoff="1.00000000000000000"/>
      <sparseX i="746" alpha="6170.85156322334478318" sparseCutoff="1.00000000000000000"/>
      <sparseX i="747" alpha="-6357.05520222105315042" sparseCutoff="1.00000000000000000"/>
      <sparseX i="748" alpha="-8380.76847013453516411" sparseCutoff="1.00000000000000000"/>
      <sparseX i="749" alpha="-8426.47445797183172544" sparseCutoff="1.00000000000000000"/>
      <sparseX i="750" alpha="-24321.96028096183363232" sparseCutoff="1.00000000000000000"/>
      <sparseX i="751" alpha="-9621.06905926854960853" sparseCutoff="1.00000000000000000"/>
      <sparseX i="752" alpha="-13714.76493548856160487" sparseCutoff="1.00000000000000000"/>
      <sparseX i="753" alpha="-3212.70637592457751452" sparseCutoff="1.00000000000000000"/>
      <sparseX i="754" alpha="-1879.40595764644467636" sparseCutoff="1.00000000000000000"/>
      <sparseX i="755" alpha="2416.17465040038132429" sparseCutoff="1.00000000000000000"/>
      <sparseX i="756" alpha="4113.88592386674918089" sparseCutoff="1.00000000000000000"/>
      <sparseX i="757" alpha="24307.53230895072920248" sparseCutoff="1.00000000000000000"/>
      <sparseX i="758" alpha="3185.04841454691268154" sparseCutoff="1.00000000000000000"/>
      <sparseX i="759" alpha="4291.55287165078243561" sparseCutoff="1.00000000000000000"/>
      <sparseX i="760" alpha="-7329.42743955632067809" sparseCutoff="1.00000000000000000"/>
      <sparseX i="761" alpha="-205.60818663818179175" sparseCutoff="1.00000000000000000"/>
      <sparseX i="762" alpha="-17368.75450269911380019" sparseCutoff="1.00000000000000000"/>
      <sparseX i="763" alpha="-10292.39294055240497983" sparseCutoff="1.00000000000000000"/>
      <sparseX i="764" alpha="-6499.24046377068134461" sparseCutoff="1.00000000000000000"/>
      <sparseX i="765" alpha="2082.79985015451893560" sparseCutoff="1.00000000000000000"/>
      <sparseX i="766" alpha="8511.50854097255614761" sparseCutoff="1.00000000000000000"/>
      <sparseX i="767" alpha="9868.63361217915553425" sparseCutoff="1.00000000000000000"/>
      <sparseX i="768" alpha="1260.04016300696821418" sparseCutoff="1.00000000000000000"/>
      <sparseX i="769" alpha="-8629.09799049949833716" sparseCutoff="1.00000000000000000"/>
      <sparseX i="770" alpha="10410.29470700221645529" sparseCutoff="1.00000000000000000"/>
      <sparseX i="771" alpha="-3544.39208575131851831" sparseCutoff="1.00000000000000000"/>
      <sparseX i="772" alpha="8403.83995760601283109" sparseCutoff="1.00000000000000000"/>
      <sparseX i="773" alpha="1385.38651246248696225" sparseCutoff="1.00000000000000000"/>
      <sparseX i="774" alpha="9979.17329211531068722" sparseCutoff="1.00000000000000000"/>
      <sparseX i="775" alpha="11511.33063549930011504" sparseCutoff="1.00000000000000000"/>
      <sparseX i="776" alpha="-1105.01482765274954545" sparseCutoff="1.00000000000000000"/>
      <sparseX i="777" alpha="3326.75828688858882742" sparseCutoff="1.00000000000000000"/>
      <sparseX i="778" alpha="-8172.23342695733208529" sparseCutoff="1.00000000000000000"/>
      <sparseX i="779" alpha="8282.19845966635330115" sparseCutoff="1.00000000000000000"/>
      <sparseX i="780" alpha="-593.86441238218799299" sparseCutoff="1.00000000000000000"/>
      <sparseX i="781" alpha="-24166.88140622081482434" sparseCutoff="1.00000000000000000"/>
      <sparseX i="782" alpha="7716.25955409326070367" sparseCutoff="1.00000000000000000"/>
      <sparseX i="783" alpha="-10872.03461375462939031" sparseCutoff="1.00000000000000000"/>
      <sparseX i="784" alpha="346.29564126896326570" sparseCutoff="1.00000000000000000"/>
      <sparseX i="785" alpha="20728.58390891031376668" sparseCutoff="1.00000000000000000"/>
      <sparseX i="786" alpha="2327.89378080888855038" sparseCutoff="1.00000000000000000"/>
      <sparseX i="787" alpha="16938.66994225662347162" sparseCutoff="1.00000000000000000"/>
      <sparseX i="788" alpha="4605.25808368474827148" sparseCutoff="1.00000000000000000"/>
      <sparseX i="789" alpha="-577.09905925237512747" sparseCutoff="1.00000000000000000"/>
      <sparseX i="790" alpha="9897.67273107690198231" sparseCutoff="1.00000000000000000"/>
      <sparseX i="791" alpha="-12074.49882726004216238" sparseCutoff="1.00000000000000000"/>
      <sparseX i="792" alpha="-14949.67446760150778573" sparseCutoff="1.00000000000000000"/>
      <sparseX i="793" alpha="-10568.88104231784382137" sparseCutoff="1.00000000000000000"/>
      <sparseX i="794" alpha="-21234.70703757465162198" sparseCutoff="1.00000000000000000"/>
      <sparseX i="795" alpha="11084.96577604008962226" sparseCutoff="1.00000000000000000"/>
      <sparseX i="796" alpha="2407.14176601372491859" sparseCutoff="1.00000000000000000"/>
      <sparseX i="797" alpha="25013.37148969664485776" sparseCutoff="1.00000000000000000"/>
      <sparseX i="798" alpha="22725.98194968743337085" sparseCutoff="1.00000000000000000"/>
      <sparseX i="799" alpha="-13806.68825540061880019" sparseCutoff="1.00000000000000000"/>
      <sparseX i="800" alpha="-23114.95345628237555502" sparseCutoff="1.00000000000000000"/>
      <sparseX i="801" alpha="8132.57431199669008492" sparseCutoff="1.00000000000000000"/>
      <sparseX i="802" alpha="-2994.43173829499255589" sparseCutoff="1.00000000000000000"/>
      <sparseX i="803" alpha="-74.65011808440345931" sparseCutoff="1.00000000000000000"/>
      <sparseX i="804" alpha="1143.47640035669928693" sparseCutoff="1.00000000000000000"/>
      <sparseX i="805" alpha="-3227.09203211805152023" sparseCutoff="1.00000000000000000"/>
      <sparseX i="806" alpha="-8178.66273492617528973" sparseCutoff="1.00000000000000000"/>
      <sparseX i="807" alpha="13605.86321208681147255" sparseCutoff="1.00000000000000000"/>
      <sparseX i="808" alpha="-24904.20626136298596975" sparseCutoff="1.00000000000000000"/>
      <sparseX i="809" alpha="-15674.66511285537671938" sparseCutoff="1.00000000000000000"/>
      <sparseX i="810" alpha="-7241.95081745089373726" sparseCutoff="1.00000000000000000"/>
      <sparseX i="811" alpha="2872.42684461321778144" sparseCutoff="1.00000000000000000"/>
      <sparseX i="812" alpha="-5532.85039348456939479" sparseCutoff="1.00000000000000000"/>
      <sparseX i="813" alpha="-1751.34327974171696951" sparseCutoff="1.00000000000000000"/>
      <sparseX i="814" alpha="4352.06828523998137825" sparseCutoff="1.00000000000000000"/>
      <sparseX i="815" alpha="17062.07854984318692004" sparseCutoff="1.00000000000000000"/>
      <sparseX i="816" alpha="19639.18059161031851545" sparseCutoff="1.00000000000000000"/>
      <sparseX i="817" alpha="9527.66018254338996485" sparseCutoff="1.00000000000000000"/>
      <sparseX i="818" alpha="-7046.44908484896131995" sparseCutoff="1.00000000000000000"/>
      <sparseX i="819" alpha="11176.13434719225006120" sparseCutoff="1.00000000000000000"/>
      <sparseX i="820" alpha="4133.27094967420998728" sparseCutoff="1.00000000000000000"/>
      <sparseX i="821" alpha="4568.85696280495631072" sparseCutoff="1.00000000000000000"/>
      <sparseX i="822" alpha="-9162.48355644651928742" sparseCutoff="1.00000000000000000"/>
      <sparseX i="823" alpha="21469.08656043535665958" sparseCutoff="1.00000000000000000"/>
      <sparseX i="824" alpha="13881.26616196051509178" sparseCutoff="1.00000000000000000"/>
      <sparseX i="825" alpha="29823.55163301804714138" sparseCutoff="1.00000000000000000"/>
      <sparseX i="826" alpha="-16669.66004241220070980" sparseCutoff="1.00000000000000000"/>
      <sparseX i="827" alpha="-20342.17919047524628695" sparseCutoff="1.00000000000000000"/>
      <sparseX i="828" alpha="22949.16274044347301242" sparseCutoff="1.00000000000000000"/>
      <sparseX i="829" alpha="3951.92319722619959066" sparseCutoff="1.00000000000000000"/>
      <sparseX i="830" alpha="-5388.53765195431878965" sparseCutoff="1.00000000000000000"/>
      <sparseX i="831" alpha="19256.72872700202788110" sparseCutoff="1.00000000000000000"/>
      <sparseX i="832" alpha="2472.14903664304665654" sparseCutoff="1.00000000000000000"/>
      <sparseX i="833" alpha="-7438.99477089121864992" sparseCutoff="1.00000000000000000"/>
      <sparseX i="834" alpha="-31225.78527548074271181" sparseCutoff="1.00000000000000000"/>
      <sparseX i="835" alpha="2468.99023715928069578" sparseCutoff="1.00000000000000000"/>
      <sparseX i="836" alpha="9089.39754286766583391" sparseCutoff="1.00000000000000000"/>
      <sparseX i="837" alpha="15702.09017575147663592" sparseCutoff="1.00000000000000000"/>
      <sparseX i="838" alpha="-30411.03237294723658124" sparseCutoff="1.00000000000000000"/>
      <sparseX i="839" alpha="28313.37162051751874969" sparseCutoff="1.00000000000000000"/>
      <sparseX i="840" alpha="7698.38525374020900927" sparseCutoff="1.00000000000000000"/>
      <sparseX i="841" alpha="-19382.22474105455330573" sparseCutoff="1.00000000000000000"/>
      <sparseX i="842" alpha="-22198.47245329239740386" sparseCutoff="1.00000000000000000"/>
      <sparseX i="843" alpha="-6200.94701903539225896" sparseCutoff="1.00000000000000000"/>
      <sparseX i="844" alpha="277.61198496478078823" sparseCutoff="1.00000000000000000"/>
      <sparseX i="845" alpha="-5342.86364884523754881" sparseCutoff="1.00000000000000000"/>
      <sparseX i="846" alpha="6121.04040726335551881" sparseCutoff="1.00000000000000000"/>
      <sparseX i="847" alpha="2562.27419523974640470" sparseCutoff="1.00000000000000000"/>
      <sparseX i="848" alpha="-11674.06764581711831852" sparseCutoff="1.00000000000000000"/>
      <sparseX i="849" alpha="-3928.10596914908410326" sparseCutoff="1.00000000000000000"/>
      <sparseX i="850" alpha="3436.36666155082230034" sparseCutoff="1.00000000000000000"/>
      <sparseX i="851" alpha="-27190.35681209747781395" sparseCutoff="1.00000000000000000"/>
      <sparseX i="852" alpha="16168.09167022449946671" sparseCutoff="1.00000000000000000"/>
      <sparseX i="853" alpha="27806.23774381860857829" sparseCutoff="1.00000000000000000"/>
      <sparseX i="854" alpha="1923.27269980656546977" sparseCutoff="1.00000000000000000"/>
      <sparseX i="855" alpha="-1374.60245984620723902" sparseCutoff="1.00000000000000000"/>
      <sparseX i="856" alpha="-18868.30039414988641511" sparseCutoff="1.00000000000000000"/>
      <sparseX i="857" alpha="-4121.20736584381847933" sparseCutoff="1.00000000000000000"/>
      <sparseX i="858" alpha="4633.03596632080552808" sparseCutoff="1.00000000000000000"/>
      <sparseX i="859" alpha="-9422.93050622296141228" sparseCutoff="1.00000000000000000"/>
      <sparseX i="860" alpha="-8793.07346947941914550" sparseCutoff="1.00000000000000000"/>
      <sparseX i="861" alpha="-21006.08889704195462400" sparseCutoff="1.00000000000000000"/>
      <sparseX i="862" alpha="10778.22613417691718496" sparseCutoff="1.00000000000000000"/>
      <sparseX i="863" alpha="-585.31990297237803134" sparseCutoff="1.00000000000000000"/>
      <sparseX i="864" alpha="-5821.57882678262376430" sparseCutoff="1.00000000000000000"/>
      <sparseX i="865" alpha="8783.19513372267101659" sparseCutoff="1.00000000000000000"/>
      <sparseX i="866" alpha="-1772.61564276660215000" sparseCutoff="1.00000000000000000"/>
      <sparseX i="867" alpha="20725.92892122297780588" sparseCutoff="1.00000000000000000"/>
      <sparseX i="868" alpha="11723.83239831356331706" sparseCutoff="1.00000000000000000"/>
      <sparseX i="869" alpha="2496.78728571576220929" sparseCutoff="1.00000000000000000"/>
      <sparseX i="870" alpha="-186.75183322678327613" sparseCutoff="1.00000000000000000"/>
      <sparseX i="871" alpha="-808.21576567014449211" sparseCutoff="1.00000000000000000"/>
      <sparseX i="872" alpha="827.57115272208341139" sparseCutoff="1.00000000000000000"/>
      <sparseX i="873" alpha="-3776.06224321107129072" sparseCutoff="1.00000000000000000"/>
      <sparseX i="874" alpha="-1300.46634586141544787" sparseCutoff="1.00000000000000000"/>
      <sparseX i="875" alpha="7212.90607779293804924" sparseCutoff="1.00000000000000000"/>
      <sparseX i="876" alpha="-257.18480563342797041" sparseCutoff="1.00000000000000000"/>
      <sparseX i="877" alpha="2281.90883047702436670" sparseCutoff="1.00000000000000000"/>
      <sparseX i="878" alpha="-7239.25990720172922011" sparseCutoff="1.00000000000000000"/>
      <sparseX i="879" alpha="567.81658596372506054" sparseCutoff="1.00000000000000000"/>
      <sparseX i="880" alpha="-2185.11068011018733159" sparseCutoff="1.00000000000000000"/>
      <sparseX i="881" alpha="5622.20335261841501051" sparseCutoff="1.00000000000000000"/>
      <sparseX i="882" alpha="-6308.11889189360863384" sparseCutoff="1.00000000000000000"/>
      <sparseX i="883" alpha="-2499.60674427645290052" sparseCutoff="1.00000000000000000"/>
      <sparseX i="884" alpha="-843.84856793115477558" sparseCutoff="1.00000000000000000"/>
      <sparseX i="885" alpha="-7321.64269096023599559" sparseCutoff="1.00000000000000000"/>
      <sparseX i="886" alpha="-6229.97146846561463462" sparseCutoff="1.00000000000000000"/>
      <sparseX i="887" alpha="1123.42234955353137593" sparseCutoff="1.00000000000000000"/>
      <sparseX i="888" alpha="4099.11785265856815386" sparseCutoff="1.00000000000000000"/>
      <sparseX i="889" alpha="-3400.19365021664088999" sparseCutoff="1.00000000000000000"/>
      <sparseX i="890" alpha="1303.31352835405778023" sparseCutoff="1.00000000000000000"/>
      <sparseX i="891" alpha="3691.91364982710138065" sparseCutoff="1.00000000000000000"/>
      <sparseX i="892" alpha="-2196.52827597687337402" sparseCutoff="1.00000000000000000"/>
      <sparseX i="893" alpha="8240.62636981639661826" sparseCutoff="1.00000000000000000"/>
      <sparseX i="894" alpha="-2547.66655147145502269" sparseCutoff="1.00000000000000000"/>
      <sparseX i="895" alpha="-6607.37086286961766746" sparseCutoff="1.00000000000000000"/>
      <sparseX i="896" alpha="6962.51902902618348890" sparseCutoff="1.00000000000000000"/>
      <sparseX i="897" alpha="14556.86804308461978508" sparseCutoff="1.00000000000000000"/>
      <sparseX i="898" alpha="-5599.23146558218741120" sparseCutoff="1.00000000000000000"/>
      <sparseX i="899" alpha="5269.31358516995624086" sparseCutoff="1.00000000000000000"/>
      <sparseX i="900" alpha="-1358.38004222781682984" sparseCutoff="1.00000000000000000"/>
      <sparseX i="901" alpha="-10115.38871588475376484" sparseCutoff="1.00000000000000000"/>
      <sparseX i="902" alpha="10236.27812185490620323" sparseCutoff="1.00000000000000000"/>
      <sparseX i="903" alpha="5750.73288065305314376" sparseCutoff="1.00000000000000000"/>
      <sparseX i="904" alpha="-3450.85794552073457453" sparseCutoff="1.00000000000000000"/>
      <sparseX i="905" alpha="3005.86534903030678834" sparseCutoff="1.00000000000000000"/>
      <sparseX i="906" alpha="4626.60395561519726471" sparseCutoff="1.00000000000000000"/>
      <sparseX i="907" alpha="645.04558527125209366" sparseCutoff="1.00000000000000000"/>
      <sparseX i="908" alpha="4060.85153043930176864" sparseCutoff="1.00000000000000000"/>
      <sparseX i="909" alpha="-4885.08050342233673291" sparseCutoff="1.00000000000000000"/>
      <sparseX i="910" alpha="-2674.16304443467288365" sparseCutoff="1.00000000000000000"/>
      <sparseX i="911" alpha="-4709.24323107030886604" sparseCutoff="1.00000000000000000"/>
      <sparseX i="912" alpha="4175.17814958054532326" sparseCutoff="1.00000000000000000"/>
      <sparseX i="913" alpha="16809.27002650910799275" sparseCutoff="1.00000000000000000"/>
      <sparseX i="914" alpha="-8079.46078838598168659" sparseCutoff="1.00000000000000000"/>
      <sparseX i="915" alpha="126.04994662097313096" sparseCutoff="1.00000000000000000"/>
      <sparseX i="916" alpha="-6104.37560112245955679" sparseCutoff="1.00000000000000000"/>
      <sparseX i="917" alpha="1802.74383088039849099" sparseCutoff="1.00000000000000000"/>
      <sparseX i="918" alpha="-757.77336347594405197" sparseCutoff="1.00000000000000000"/>
      <sparseX i="919" alpha="436.38192203852446482" sparseCutoff="1.00000000000000000"/>
      <sparseX i="920" alpha="992.08945884430272599" sparseCutoff="1.00000000000000000"/>
      <sparseX i="921" alpha="1943.01103664973788909" sparseCutoff="1.00000000000000000"/>
      <sparseX i="922" alpha="6014.15538393788392568" sparseCutoff="1.00000000000000000"/>
      <sparseX i="923" alpha="5106.83008990809594252" sparseCutoff="1.00000000000000000"/>
      <sparseX i="924" alpha="108.12396453329037627" sparseCutoff="1.00000000000000000"/>
      <sparseX i="925" alpha="4481.64317659174776054" sparseCutoff="1.00000000000000000"/>
      <sparseX i="926" alpha="-194.49694632476533229" sparseCutoff="1.00000000000000000"/>
      <sparseX i="927" alpha="-1201.87537635578837580" sparseCutoff="1.00000000000000000"/>
      <sparseX i="928" alpha="-6802.55225052938112640" sparseCutoff="1.00000000000000000"/>
      <sparseX i="929" alpha="-3523.64055586111180673" sparseCutoff="1.00000000000000000"/>
      <sparseX i="930" alpha="930.58307023002600999" sparseCutoff="1.00000000000000000"/>
      <sparseX i="931" alpha="10.67561407397010953" sparseCutoff="1.00000000000000000"/>
      <sparseX i="932" alpha="-14869.05508440756420896" sparseCutoff="1.00000000000000000"/>
      <sparseX i="933" alpha="-5813.92314857062410738" sparseCutoff="1.00000000000000000"/>
      <sparseX i="934" alpha="-8733.24417406549764564" sparseCutoff="1.00000000000000000"/>
      <sparseX i="935" alpha="2595.94595883502279321" sparseCutoff="1.00000000000000000"/>
      <sparseX i="936" alpha="-1780.54693941724690376" sparseCutoff="1.00000000000000000"/>
      <sparseX i="937" alpha="4580.98770430995682545" sparseCutoff="1.00000000000000000"/>
      <sparseX i="938" alpha="328.21593362011327599" sparseCutoff="1.00000000000000000"/>
      <sparseX i="939" alpha="2381.26524165064165572" sparseCutoff="1.00000000000000000"/>
      <sparseX i="940" alpha="-3882.70766840459282321" sparseCutoff="1.00000000000000000"/>
      <sparseX i="941" alpha="-2375.86263969215497127" sparseCutoff="1.00000000000000000"/>
      <sparseX i="942" alpha="-4676.05970635417997983" sparseCutoff="1.00000000000000000"/>
      <sparseX i="943" alpha="-1307.28692438233497342" sparseCutoff="1.00000000000000000"/>
      <sparseX i="944" alpha="3984.34218093191930166" sparseCutoff="1.00000000000000000"/>
      <sparseX i="945" alpha="-2027.18301763876797850" sparseCutoff="1.00000000000000000"/>
      <sparseX i="946" alpha="873.93642349221397581" sparseCutoff="1.00000000000000000"/>
      <sparseX i="947" alpha="-1939.89109833460838672" sparseCutoff="1.00000000000000000"/>
      <sparseX i="948" alpha="-3576.76659497946502597" sparseCutoff="1.00000000000000000"/>
      <sparseX i="949" alpha="-921.33768294994354164" sparseCutoff="1.00000000000000000"/>
      <sparseX i="950" alpha="-186.39338460430568034" sparseCutoff="1.00000000000000000"/>
      <sparseX i="951" alpha="3824.86695355170149924" sparseCutoff="1.00000000000000000"/>
      <sparseX i="952" alpha="16467.74561194961279398" sparseCutoff="1.00000000000000000"/>
      <sparseX i="953" alpha="726.26716045981879688" sparseCutoff="1.00000000000000000"/>
      <sparseX i="954" alpha="7502.03676192697548686" sparseCutoff="1.00000000000000000"/>
      <sparseX i="955" alpha="2194.19296896897594706" sparseCutoff="1.00000000000000000"/>
      <sparseX i="956" alpha="-5314.62671851450340910" sparseCutoff="1.00000000000000000"/>
      <sparseX i="957" alpha="6973.75091150151729380" sparseCutoff="1.00000000000000000"/>
      <sparseX i="958" alpha="917.78258657192316150" sparseCutoff="1.00000000000000000"/>
      <sparseX i="959" alpha="4656.06178546209775959" sparseCutoff="1.00000000000000000"/>
      <sparseX i="960" alpha="2820.66068477284625260" sparseCutoff="1.00000000000000000"/>
      <sparseX i="961" alpha="-1994.10631457829322244" sparseCutoff="1.00000000000000000"/>
      <sparseX i="962" alpha="1431.27270989734324758" sparseCutoff="1.00000000000000000"/>
      <sparseX i="963" alpha="-1766.97632766084120703" sparseCutoff="1.00000000000000000"/>
      <sparseX i="964" alpha="-216.27816341391297783" sparseCutoff="1.00000000000000000"/>
      <sparseX i="965" alpha="-2527.92339673147625945" sparseCutoff="1.00000000000000000"/>
      <sparseX i="966" alpha="1939.04930671776082818" sparseCutoff="1.00000000000000000"/>
      <sparseX i="967" alpha="-342.11477669251490852" sparseCutoff="1.00000000000000000"/>
      <sparseX i="968" alpha="-69.85860767616016176" sparseCutoff="1.00000000000000000"/>
      <sparseX i="969" alpha="-455.89885755048447891" sparseCutoff="1.00000000000000000"/>
      <sparseX i="970" alpha="-170.26767543158038620" sparseCutoff="1.00000000000000000"/>
      <sparseX i="971" alpha="-0.30399290771773990" sparseCutoff="1.00000000000000000"/>
      <sparseX i="972" alpha="-311.72000383553228176" sparseCutoff="1.00000000000000000"/>
      <sparseX i="973" alpha="223.03610084956036985" sparseCutoff="1.00000000000000000"/>
      <sparseX i="974" alpha="-2119.10627070291775453" sparseCutoff="1.00000000000000000"/>
      <sparseX i="975" alpha="-6558.73346126650176302" sparseCutoff="1.00000000000000000"/>
      <sparseX i="976" alpha="-4248.36916348950853717" sparseCutoff="1.00000000000000000"/>
      <sparseX i="977" alpha="4205.63400423540133488" sparseCutoff="1.00000000000000000"/>
      <sparseX i="978" alpha="31.96055477766120134" sparseCutoff="1.00000000000000000"/>
      <sparseX i="979" alpha="-1958.65054093584717521" sparseCutoff="1.00000000000000000"/>
      <sparseX i="980" alpha="-190.76621192429780649" sparseCutoff="1.00000000000000000"/>
      <sparseX i="981" alpha="-24.70515400228136826" sparseCutoff="1.00000000000000000"/>
      <sparseX i="982" alpha="150.73089977830619546" sparseCutoff="1.00000000000000000"/>
      <sparseX i="983" alpha="129.16893792418045450" sparseCutoff="1.00000000000000000"/>
      <sparseX i="984" alpha="16.21789206812252715" sparseCutoff="1.00000000000000000"/>
      <sparseX i="985" alpha="66.58804706444171018" sparseCutoff="1.00000000000000000"/>
      <sparseX i="986" alpha="-175.52593515746909247" sparseCutoff="1.00000000000000000"/>
